{"type":"LSTMTimeStep","options":{"inputSize":5,"hiddenLayers":[20],"outputSize":5,"decayRate":0.999,"smoothEps":1e-8,"regc":0.000001,"clipval":5},"hiddenLayers":[{"inputMatrix":{"rows":20,"columns":5,"weights":{"0":0.0045379530638456345,"1":-0.07456206530332565,"2":-0.026545202359557152,"3":-0.06706111133098602,"4":-0.06673579663038254,"5":0.01946089044213295,"6":0.0035942704416811466,"7":-0.03201868385076523,"8":0.022409822791814804,"9":0.05033959820866585,"10":-0.0008434204501099885,"11":-0.00894977804273367,"12":0.048690564930438995,"13":0.07150771468877792,"14":-0.020281024277210236,"15":0.06677263230085373,"16":-0.0631374642252922,"17":0.07898873090744019,"18":0.05764017626643181,"19":-0.03823236748576164,"20":-0.06175832822918892,"21":-0.07001421600580215,"22":-0.04618915915489197,"23":0.008091427385807037,"24":0.07535380125045776,"25":-0.033276837319135666,"26":-0.0032924104016274214,"27":0.008559399284422398,"28":0.07642703503370285,"29":0.004007664974778891,"30":-0.07943738996982574,"31":-0.01877589523792267,"32":-0.07520902901887894,"33":-0.016881687566637993,"34":0.05864928290247917,"35":0.07950138300657272,"36":-0.035294968634843826,"37":-0.033227115869522095,"38":0.008093909360468388,"39":0.03284750506281853,"40":-0.030742811039090157,"41":0.02079089544713497,"42":-0.07748692482709885,"43":-0.0035702690947800875,"44":-0.0173029862344265,"45":0.04025336727499962,"46":0.07820222526788712,"47":-0.06734932959079742,"48":-0.0729416087269783,"49":-0.023127080872654915,"50":-0.06334710121154785,"51":0.01229187287390232,"52":-0.0447748601436615,"53":-0.032150059938430786,"54":0.07774730026721954,"55":-0.03763256222009659,"56":-0.045693814754486084,"57":0.01586572267115116,"58":0.050511378794908524,"59":0.043131932616233826,"60":0.039064012467861176,"61":-0.0318964459002018,"62":0.06717870384454727,"63":-0.0754232257604599,"64":-0.017527200281620026,"65":0.004783742129802704,"66":-0.013097274117171764,"67":0.03479579836130142,"68":0.007825102657079697,"69":0.012506893835961819,"70":-0.05764273926615715,"71":-0.06294798851013184,"72":0.03138991817831993,"73":0.06998046487569809,"74":0.007412630133330822,"75":0.07861971110105515,"76":0.056040190160274506,"77":-0.025941748172044754,"78":-0.06416590511798859,"79":0.049749597907066345,"80":-0.052708949893713,"81":0.06701953709125519,"82":0.006647020578384399,"83":-0.051065634936094284,"84":-0.054504770785570145,"85":0.07375143468379974,"86":-0.0035874005407094955,"87":0.006973534822463989,"88":-0.04832622408866882,"89":0.04573716223239899,"90":-0.017729206010699272,"91":0.063175730407238,"92":0.06615394353866577,"93":-0.07403163611888885,"94":0.027789318934082985,"95":-0.06681345403194427,"96":-0.04448579251766205,"97":-0.006308407988399267,"98":0.022117765620350838,"99":0.031810879707336426}},"inputHidden":{"rows":20,"columns":20,"weights":{"0":-0.06467039883136749,"1":0.015821080654859543,"2":0.048455916345119476,"3":0.040298305451869965,"4":-0.025048833340406418,"5":-0.046730220317840576,"6":-0.0234918761998415,"7":0.04220239073038101,"8":0.04561752825975418,"9":0.022699356079101562,"10":-0.006734931841492653,"11":0.06834349781274796,"12":0.016396235674619675,"13":-0.01784106343984604,"14":0.008684447966516018,"15":0.03037121891975403,"16":-0.06744614988565445,"17":0.009881562553346157,"18":0.0041968016885221004,"19":0.028421208262443542,"20":0.012428086251020432,"21":0.013775848783552647,"22":-0.048357680439949036,"23":-0.029515767470002174,"24":-0.040278151631355286,"25":0.039115533232688904,"26":-0.07323960214853287,"27":0.02442840486764908,"28":0.009121064096689224,"29":-0.0421428382396698,"30":0.03818127512931824,"31":0.011425078846514225,"32":0.018424494192004204,"33":-0.05536903440952301,"34":-0.07632403075695038,"35":-0.07961079478263855,"36":-0.05480986088514328,"37":0.022126808762550354,"38":-0.003347745630890131,"39":-0.07215059548616409,"40":0.024333827197551727,"41":-0.014196219854056835,"42":-0.03235769644379616,"43":0.005516319535672665,"44":-0.035661764442920685,"45":-0.011484116315841675,"46":-0.03766944259405136,"47":-0.04337542876601219,"48":0.03331511467695236,"49":0.058472640812397,"50":0.012607162818312645,"51":0.0017614446114748716,"52":0.013180776499211788,"53":-0.021128004416823387,"54":0.04959775507450104,"55":0.010035594925284386,"56":0.008795047178864479,"57":-0.03904679790139198,"58":0.006780599243938923,"59":0.050350721925497055,"60":-0.0038776169531047344,"61":-0.025285834446549416,"62":-0.047980327159166336,"63":0.019295377656817436,"64":0.020953338593244553,"65":0.06607022136449814,"66":-0.021641090512275696,"67":-0.05938546732068062,"68":0.018131038174033165,"69":0.041335877031087875,"70":-0.07354966551065445,"71":0.05426492542028427,"72":-0.07543887943029404,"73":0.07195252180099487,"74":0.07347873598337173,"75":0.018240606412291527,"76":0.004207346122711897,"77":0.0387367345392704,"78":-0.06548817455768585,"79":0.03001370094716549,"80":0.06508132815361023,"81":0.04724836349487305,"82":0.07407651841640472,"83":0.03953522816300392,"84":0.036577846854925156,"85":-0.014567352831363678,"86":-0.0451912023127079,"87":-0.0511179082095623,"88":0.05903708189725876,"89":0.06978234648704529,"90":0.00785081833600998,"91":-0.0013051305431872606,"92":-0.01770121045410633,"93":0.03212234005331993,"94":0.06272342056035995,"95":-0.018077010288834572,"96":-0.05988452583551407,"97":0.05613430216908455,"98":0.07207906991243362,"99":-0.010434284806251526,"100":0.07333056628704071,"101":0.017011888325214386,"102":-0.061806660145521164,"103":-0.062113821506500244,"104":-0.030657200142741203,"105":-0.014766065403819084,"106":0.025395046919584274,"107":-0.014759461395442486,"108":-0.047856640070676804,"109":-0.07200369238853455,"110":0.007264307234436274,"111":0.04011964797973633,"112":0.05080153048038483,"113":-0.0560837984085083,"114":-0.03499558940529823,"115":-0.00031095443409867585,"116":0.07088793069124222,"117":-0.03909071162343025,"118":-0.019945520907640457,"119":-0.0714680477976799,"120":0.009910094551742077,"121":0.02935657650232315,"122":0.006653673946857452,"123":0.0020534396171569824,"124":-0.06773478537797928,"125":-0.022454973310232162,"126":-0.033737216144800186,"127":0.03694326803088188,"128":-0.018268845975399017,"129":0.0011848547728732228,"130":-0.029049362987279892,"131":0.017687702551484108,"132":-0.05665728822350502,"133":-0.012513885274529457,"134":-0.0037813910748809576,"135":0.01999620534479618,"136":0.050210364162921906,"137":0.05242384225130081,"138":-0.01972271502017975,"139":-0.011099879629909992,"140":0.04266956076025963,"141":0.04218367114663124,"142":0.03959756717085838,"143":0.010216392576694489,"144":-0.061741799116134644,"145":-0.0570458322763443,"146":-0.04067075625061989,"147":0.02267932891845703,"148":0.07142378389835358,"149":0.05419814586639404,"150":0.06471379101276398,"151":0.03305733576416969,"152":0.0075387428514659405,"153":0.015992261469364166,"154":-0.043005604296922684,"155":0.01375808846205473,"156":0.04759163036942482,"157":0.03655686229467392,"158":-0.02670382708311081,"159":-0.009791776537895203,"160":0.007381552830338478,"161":0.05011386796832085,"162":0.07674472033977509,"163":0.05631648004055023,"164":-0.05508364364504814,"165":-0.02412361651659012,"166":-0.023242438212037086,"167":0.046892523765563965,"168":-0.07271093875169754,"169":0.06105811148881912,"170":0.05526474490761757,"171":-0.046057507395744324,"172":-0.07468882203102112,"173":0.030534425750374794,"174":0.031694408506155014,"175":0.00430556945502758,"176":0.06453366577625275,"177":0.02012038044631481,"178":0.05735442042350769,"179":0.018028832972049713,"180":0.053173553198575974,"181":0.05229392275214195,"182":0.033276673406362534,"183":0.014825376681983471,"184":0.03978460654616356,"185":0.05281924083828926,"186":0.06514570116996765,"187":-0.07565072923898697,"188":-0.02367676980793476,"189":-0.05598337948322296,"190":0.05899227410554886,"191":0.04820265993475914,"192":-0.07706326246261597,"193":0.015886638313531876,"194":-0.07455762475728989,"195":0.06292513012886047,"196":0.037912946194410324,"197":0.025117874145507812,"198":-0.07370313256978989,"199":-0.002990802051499486,"200":-0.02759651280939579,"201":0.010228855535387993,"202":-0.02864030748605728,"203":-0.06832151859998703,"204":0.0546879805624485,"205":0.0038223264273256063,"206":-0.05886511504650116,"207":-0.055111199617385864,"208":-0.05829702690243721,"209":0.0393613800406456,"210":0.01574113965034485,"211":0.02778124250471592,"212":-0.06687493622303009,"213":-0.04497741535305977,"214":0.07202082872390747,"215":0.03579636663198471,"216":-0.012199603021144867,"217":-0.04497326910495758,"218":0.0164842139929533,"219":-0.012755321338772774,"220":0.0779358297586441,"221":0.02745513804256916,"222":0.024163782596588135,"223":0.011626671068370342,"224":-0.0644247978925705,"225":-0.073843814432621,"226":-0.0316963829100132,"227":0.0298918429762125,"228":0.07595244795084,"229":0.058224402368068695,"230":0.06275348365306854,"231":0.06760220229625702,"232":0.0670006275177002,"233":0.038896288722753525,"234":-0.05992171913385391,"235":-0.006071438081562519,"236":0.052209511399269104,"237":-0.03116590902209282,"238":0.0376029908657074,"239":-0.009831509552896023,"240":0.03846760839223862,"241":0.06731186807155609,"242":0.04726424068212509,"243":0.03859052062034607,"244":-0.025755416601896286,"245":0.03850875049829483,"246":0.03033326379954815,"247":0.0044484445825219154,"248":-0.0020814600866287947,"249":0.005979889538139105,"250":0.06691411137580872,"251":-0.008612678386271,"252":0.022173216566443443,"253":-0.010535509325563908,"254":0.07676196843385696,"255":-0.02859370969235897,"256":0.013697153888642788,"257":0.07723057270050049,"258":-0.06981096416711807,"259":-0.04926637187600136,"260":0.005136556923389435,"261":-0.06508221477270126,"262":-0.05566924437880516,"263":-0.02402694895863533,"264":0.03948381543159485,"265":-0.03928082808852196,"266":0.021832531318068504,"267":-0.01260782964527607,"268":0.07845453917980194,"269":-0.07626397162675858,"270":-0.013762233778834343,"271":0.041076529771089554,"272":-0.002848938573151827,"273":0.015994664281606674,"274":-0.0024437226820737123,"275":0.02741234377026558,"276":0.05699807032942772,"277":-0.03751002624630928,"278":-0.008293199352920055,"279":0.06290341168642044,"280":-0.010682917200028896,"281":0.05590764805674553,"282":0.02019033022224903,"283":0.019826846197247505,"284":-0.05212521553039551,"285":0.012022499926388264,"286":-0.00969817116856575,"287":-0.04059043154120445,"288":0.07720339298248291,"289":0.02528662607073784,"290":0.04979141056537628,"291":0.05933118239045143,"292":-0.04019617289304733,"293":-0.01672094129025936,"294":0.06492116302251816,"295":-0.07724782079458237,"296":-0.0181139949709177,"297":0.03462870046496391,"298":-0.02233208529651165,"299":0.04388956353068352,"300":0.051120758056640625,"301":0.01342383585870266,"302":0.05481096729636192,"303":0.07384888827800751,"304":-0.025059426203370094,"305":0.002794684609398246,"306":-0.006337790749967098,"307":0.05907827243208885,"308":0.05592654272913933,"309":-0.012454602867364883,"310":0.00504959374666214,"311":-0.032843030989170074,"312":0.05584535747766495,"313":0.0697830393910408,"314":0.051630470901727676,"315":0.053415726870298386,"316":0.008073233999311924,"317":-0.028341135010123253,"318":0.04281682148575783,"319":-0.014011007733643055,"320":0.049146246165037155,"321":0.011358737014234066,"322":0.03348163142800331,"323":-0.0678609162569046,"324":-0.040983933955430984,"325":0.03698301315307617,"326":0.07520253211259842,"327":-0.06141416355967522,"328":0.05552394688129425,"329":-0.07890180498361588,"330":-0.04864662140607834,"331":-0.07697711884975433,"332":-0.0654095709323883,"333":-0.0388898104429245,"334":-0.04117006063461304,"335":0.008388764224946499,"336":-0.01897376962006092,"337":0.03634991496801376,"338":0.013050784356892109,"339":-0.06612714380025864,"340":-0.04890499636530876,"341":-0.026611043140292168,"342":-0.02350524812936783,"343":0.07283931970596313,"344":0.06834763288497925,"345":-0.05180656164884567,"346":-0.033801909536123276,"347":-0.025965118780732155,"348":0.039539486169815063,"349":-0.04932132735848427,"350":0.043158844113349915,"351":0.0726238563656807,"352":0.03562081977725029,"353":0.05249844491481781,"354":-0.022395024076104164,"355":-0.07150954008102417,"356":-0.02623639814555645,"357":-0.07262830436229706,"358":-0.027339963242411613,"359":-0.07277854532003403,"360":-0.06561432033777237,"361":-0.01631247065961361,"362":-0.014765797182917595,"363":-0.02365117333829403,"364":0.06757576763629913,"365":-0.002707671606913209,"366":0.04313831031322479,"367":-0.014514048583805561,"368":-0.05643603950738907,"369":0.00425755325704813,"370":-0.052628520876169205,"371":-0.005357394926249981,"372":0.005858647171407938,"373":0.007125923875719309,"374":-0.06301180273294449,"375":-0.027465932071208954,"376":0.03020528145134449,"377":0.004617591854184866,"378":-0.01747235283255577,"379":-0.05395010486245155,"380":0.04403137043118477,"381":0.0572323240339756,"382":0.06994745880365372,"383":0.0252359751611948,"384":0.07621890306472778,"385":-0.07515308260917664,"386":-0.013357214629650116,"387":0.057847775518894196,"388":0.009940842166543007,"389":-0.04190807044506073,"390":-0.013096245005726814,"391":-0.06102003529667854,"392":-0.008843214251101017,"393":0.04304591193795204,"394":0.04853025823831558,"395":0.006716710049659014,"396":0.06078913062810898,"397":0.061544083058834076,"398":0.03746798262000084,"399":0.012444887310266495}},"inputBias":{"rows":20,"columns":1,"weights":{"0":0,"1":0,"2":0,"3":0,"4":0,"5":0,"6":0,"7":0,"8":0,"9":0,"10":0,"11":0,"12":0,"13":0,"14":0,"15":0,"16":0,"17":0,"18":0,"19":0}},"forgetMatrix":{"rows":20,"columns":5,"weights":{"0":0.011573858559131622,"1":0.04804321378469467,"2":-0.06903134286403656,"3":0.013025874271988869,"4":-0.043168291449546814,"5":0.04749872535467148,"6":-0.019481705501675606,"7":0.016603462398052216,"8":0.07003765553236008,"9":0.0019378846045583487,"10":-0.03668377175927162,"11":-0.012271172367036343,"12":-0.023302694782614708,"13":-0.02735181711614132,"14":0.05075886473059654,"15":-0.05112370476126671,"16":-0.04545089974999428,"17":0.009988190606236458,"18":0.0032597354147583246,"19":-0.06524918973445892,"20":-0.07627733796834946,"21":0.023527508601546288,"22":-0.019290786236524582,"23":-0.008894483558833599,"24":-0.030352728441357613,"25":-0.04556465893983841,"26":-0.05437839403748512,"27":0.0770687460899353,"28":-0.016239861026406288,"29":0.07135388255119324,"30":-0.045073628425598145,"31":-0.06315361708402634,"32":0.03474993631243706,"33":-0.05598104000091553,"34":-0.03491352126002312,"35":0.046268269419670105,"36":-0.01886969804763794,"37":0.05474155396223068,"38":0.00560404546558857,"39":-0.0263482965528965,"40":-0.07225805521011353,"41":-0.06109045818448067,"42":0.06752593070268631,"43":0.0764472633600235,"44":-0.05872444435954094,"45":-0.019025888293981552,"46":-0.027433937415480614,"47":0.06124149262905121,"48":0.006094839423894882,"49":-0.0002613048709463328,"50":-0.020214902237057686,"51":-0.07427522540092468,"52":-0.0702781230211258,"53":0.017261376604437828,"54":0.006825771648436785,"55":0.01090161968022585,"56":-0.03955285996198654,"57":0.02856932021677494,"58":0.04539351165294647,"59":0.06545582413673401,"60":0.04086759313941002,"61":-0.06575550884008408,"62":-0.042942505329847336,"63":0.07405266910791397,"64":0.04420534148812294,"65":-0.07377061247825623,"66":-0.035338398069143295,"67":0.020907919853925705,"68":0.040012426674366,"69":-0.019793154671788216,"70":-0.006893865764141083,"71":-0.0565393902361393,"72":0.06045248359441757,"73":-0.03034200333058834,"74":-0.07619906961917877,"75":-0.029132984578609467,"76":-0.037971582263708115,"77":-0.026673996821045876,"78":0.01780073717236519,"79":-0.02572401612997055,"80":-0.004382810089737177,"81":0.06779593974351883,"82":-0.0634007528424263,"83":-0.017788687720894814,"84":-0.06487628072500229,"85":0.0062993913888931274,"86":0.05606204643845558,"87":-0.07040241360664368,"88":0.02438407391309738,"89":0.02756669372320175,"90":0.06071288511157036,"91":0.02444698102772236,"92":-0.002294819103553891,"93":-0.020935405045747757,"94":0.07355091720819473,"95":0.07669307291507721,"96":-0.07642671465873718,"97":-0.04183333367109299,"98":-0.07868383079767227,"99":0.008010112680494785}},"forgetHidden":{"rows":20,"columns":20,"weights":{"0":0.027758272364735603,"1":0.07246903330087662,"2":0.07904413342475891,"3":0.025731002911925316,"4":0.07509559392929077,"5":0.03719973564147949,"6":-0.07426457852125168,"7":0.05558745935559273,"8":0.015046441927552223,"9":-0.021414946764707565,"10":-0.01576421409845352,"11":0.02397330291569233,"12":-0.07345568388700485,"13":-0.0030056803952902555,"14":0.07305247336626053,"15":0.048256102949380875,"16":0.009582294151186943,"17":-0.018159549683332443,"18":-0.04321139678359032,"19":0.0020226771011948586,"20":-0.006546759512275457,"21":0.02777620032429695,"22":-0.04814336448907852,"23":0.009418495930731297,"24":0.0358617939054966,"25":-0.026402723044157028,"26":0.07674971222877502,"27":-0.00018995266873389482,"28":-0.038719676434993744,"29":-0.021362585946917534,"30":0.032158173620700836,"31":0.060450125485658646,"32":-0.01998402178287506,"33":0.011094960384070873,"34":-0.06816045939922333,"35":0.038448892533779144,"36":0.06994885951280594,"37":-0.018490124493837357,"38":-0.07839158922433853,"39":-0.050584547221660614,"40":0.02641196735203266,"41":0.06990368664264679,"42":0.05623794347047806,"43":0.02794097736477852,"44":-0.07754350453615189,"45":-0.05411762371659279,"46":-0.00556986453011632,"47":-0.05576418340206146,"48":0.012556149624288082,"49":-0.026134228333830833,"50":-0.019824009388685226,"51":0.07551656663417816,"52":0.03149313107132912,"53":-0.03540298342704773,"54":0.03151300176978111,"55":0.03397554159164429,"56":0.05670836195349693,"57":0.07718808203935623,"58":0.07509016245603561,"59":0.07263921946287155,"60":-0.07283935695886612,"61":-0.04195975512266159,"62":0.016077766194939613,"63":-0.0021264932584017515,"64":-0.044461753219366074,"65":-0.051980160176754,"66":0.002590959658846259,"67":-0.059746257960796356,"68":-0.07552533596754074,"69":-0.029346227645874023,"70":0.03551914170384407,"71":-0.031510550528764725,"72":0.006792869884520769,"73":0.046458616852760315,"74":0.01206952054053545,"75":0.028309671208262444,"76":0.06458238512277603,"77":0.03255562111735344,"78":-0.02793850563466549,"79":0.0008026347495615482,"80":-0.0655776709318161,"81":-0.0017536897212266922,"82":-0.028732892125844955,"83":0.04500417411327362,"84":0.030755579471588135,"85":-0.0046961428597569466,"86":-0.012751160189509392,"87":0.02786625549197197,"88":-0.03928634896874428,"89":0.036815352737903595,"90":0.048967570066452026,"91":0.07885538786649704,"92":-0.045620519667863846,"93":0.020165134221315384,"94":-0.038109198212623596,"95":-0.023806925863027573,"96":0.06238020211458206,"97":0.06704286485910416,"98":0.07510308921337128,"99":-0.018711434677243233,"100":-0.026131104677915573,"101":-0.03863177075982094,"102":-0.0009572127019055188,"103":0.07608763128519058,"104":-0.025813085958361626,"105":-0.032257936894893646,"106":-0.03781767934560776,"107":0.05552303045988083,"108":-0.048767853528261185,"109":-0.060806240886449814,"110":0.04516887292265892,"111":0.06247605010867119,"112":0.017032019793987274,"113":0.05137809365987778,"114":-0.01630866341292858,"115":-0.03300729766488075,"116":0.06351471692323685,"117":0.014208032749593258,"118":0.05647530034184456,"119":-0.01257819402962923,"120":0.06059099733829498,"121":0.013022245839238167,"122":0.0428372398018837,"123":0.016922999173402786,"124":0.05229279398918152,"125":0.024932662025094032,"126":0.02398785948753357,"127":-0.0493263341486454,"128":-0.06500688940286636,"129":0.07685275375843048,"130":0.004319475032389164,"131":0.05678018555045128,"132":0.010673810727894306,"133":0.02254490926861763,"134":0.007226790767163038,"135":0.022989612072706223,"136":0.0027973633259534836,"137":-0.027934027835726738,"138":-0.057463690638542175,"139":0.015224380418658257,"140":-0.06076769530773163,"141":0.02225615829229355,"142":-0.02968713827431202,"143":-0.054482150822877884,"144":0.05791805312037468,"145":0.027562638744711876,"146":0.03081870637834072,"147":-0.00510776462033391,"148":0.051568422466516495,"149":-0.06352010369300842,"150":-0.016070937737822533,"151":0.04734518378973007,"152":0.05447898060083389,"153":0.04040132835507393,"154":0.06479766219854355,"155":0.0653090626001358,"156":-0.024797189980745316,"157":0.03770529478788376,"158":0.028184115886688232,"159":-0.022844526916742325,"160":0.04821126163005829,"161":0.07065168768167496,"162":-0.025830522179603577,"163":-0.023886878043413162,"164":-0.036808740347623825,"165":0.010247697122395039,"166":0.04245952144265175,"167":-0.0460616797208786,"168":-0.04856448993086815,"169":0.03357630595564842,"170":0.0006890243967063725,"171":0.0692097544670105,"172":0.04131327569484711,"173":-0.04237360507249832,"174":0.042752888053655624,"175":0.07851015031337738,"176":-0.037304505705833435,"177":-0.06934163719415665,"178":0.048207201063632965,"179":-0.025877106934785843,"180":0.06241324916481972,"181":0.06629546731710434,"182":-0.014262475073337555,"183":0.01991042122244835,"184":-0.021732820197939873,"185":-0.07207966595888138,"186":-0.07632448524236679,"187":-0.06122332066297531,"188":0.03857208415865898,"189":0.0656600296497345,"190":-0.052905842661857605,"191":0.07173769921064377,"192":0.05681028962135315,"193":-0.01628042943775654,"194":0.04948475956916809,"195":0.04598526656627655,"196":0.06359145045280457,"197":0.03450101986527443,"198":-0.06620103865861893,"199":-0.03268088772892952,"200":-0.01381499134004116,"201":-0.04766544699668884,"202":-0.041888825595378876,"203":-0.01768464408814907,"204":0.005925053730607033,"205":0.048888493329286575,"206":-0.0054825106635689735,"207":-0.0491984598338604,"208":-0.051351964473724365,"209":-0.04114416986703873,"210":-0.02158207632601261,"211":-0.048275429755449295,"212":0.07646671682596207,"213":-0.03333393484354019,"214":0.04520987719297409,"215":-0.0009512315737083554,"216":-0.05190706253051758,"217":-0.013575846329331398,"218":0.03691314533352852,"219":-0.05450453236699104,"220":-0.03844977542757988,"221":0.008022977970540524,"222":0.0795212909579277,"223":-0.03538482263684273,"224":-0.003069779835641384,"225":0.024209268391132355,"226":0.018961206078529358,"227":0.006530687212944031,"228":-0.011013388633728027,"229":0.04186473786830902,"230":0.004333858843892813,"231":0.0032536229118704796,"232":0.019219497218728065,"233":0.013442223891615868,"234":-0.07702066004276276,"235":0.06977950781583786,"236":-0.04684307798743248,"237":0.03598368912935257,"238":-0.03877228870987892,"239":0.03135349974036217,"240":0.010231651365756989,"241":-0.035621874034404755,"242":-0.06984526664018631,"243":-0.054616786539554596,"244":-0.04803096130490303,"245":-0.02387307398021221,"246":0.027874482795596123,"247":-0.07878494262695312,"248":0.07536131888628006,"249":0.06556081026792526,"250":0.06899116933345795,"251":0.02517758496105671,"252":-0.058011844754219055,"253":0.0025407932698726654,"254":-0.07613133639097214,"255":0.012452531605958939,"256":-0.06311867386102676,"257":0.06556295603513718,"258":0.00009803008288145065,"259":-0.06527053564786911,"260":-0.030812140554189682,"261":-0.038612183183431625,"262":-0.06278308480978012,"263":0.061902325600385666,"264":-0.06020962446928024,"265":-0.034207534044981,"266":-0.06720516830682755,"267":0.040799565613269806,"268":0.052714116871356964,"269":0.05443698912858963,"270":-0.044194892048835754,"271":0.009410706348717213,"272":0.060533761978149414,"273":-0.00868748314678669,"274":0.011448215693235397,"275":-0.016364578157663345,"276":0.05550152435898781,"277":0.07695631682872772,"278":-0.02632889524102211,"279":-0.04435408487915993,"280":-0.018839459866285324,"281":0.005365978926420212,"282":-0.0402853824198246,"283":0.03705647587776184,"284":0.057101015001535416,"285":-0.04634696617722511,"286":0.019275788217782974,"287":0.07326958328485489,"288":-0.04642514884471893,"289":-0.057967327535152435,"290":0.06365018337965012,"291":-0.03537213057279587,"292":-0.04611227661371231,"293":0.005474247504025698,"294":0.004524317570030689,"295":-0.007007854990661144,"296":-0.06085949391126633,"297":-0.04174957051873207,"298":0.060028910636901855,"299":0.03537312150001526,"300":-0.036239154636859894,"301":-0.027696391567587852,"302":0.05523715913295746,"303":-0.02903793938457966,"304":0.07586071640253067,"305":0.030296918004751205,"306":0.07873925566673279,"307":0.05086807161569595,"308":-0.027415743097662926,"309":-0.006514578126370907,"310":-0.06366204470396042,"311":0.05115973576903343,"312":-0.02507435716688633,"313":-0.06912411004304886,"314":-0.03285132348537445,"315":-0.01614985242486,"316":-0.004643217660486698,"317":-0.0013049811823293567,"318":-0.013980893418192863,"319":0.00449373759329319,"320":0.021315384656190872,"321":0.0291308481246233,"322":-0.07325710356235504,"323":-0.030096836388111115,"324":0.0586324967443943,"325":0.0654759407043457,"326":-0.028226369991898537,"327":0.029604610055685043,"328":-0.02731192111968994,"329":-0.0790383443236351,"330":0.06691774725914001,"331":-0.00744720408692956,"332":-0.04271910712122917,"333":-0.07902614027261734,"334":0.03325299918651581,"335":0.07224512845277786,"336":0.010443725623190403,"337":0.01461437251418829,"338":0.06371847540140152,"339":-0.05312025919556618,"340":-0.006879399996250868,"341":-0.05691827833652496,"342":-0.0748724490404129,"343":0.07139822095632553,"344":0.0694812685251236,"345":0.03701310604810715,"346":0.03568665683269501,"347":0.0022164317779242992,"348":-0.027019798755645752,"349":-0.05545460805296898,"350":0.026697294786572456,"351":-0.01152525469660759,"352":-0.046966440975666046,"353":0.0028664888814091682,"354":-0.04839002341032028,"355":-0.007083024363964796,"356":-0.037284839898347855,"357":0.05174298211932182,"358":-0.06895847618579865,"359":-0.05906570330262184,"360":-0.019226714968681335,"361":0.032007962465286255,"362":-0.03670752793550491,"363":0.04359566420316696,"364":0.078504279255867,"365":-0.040163103491067886,"366":-0.019993042573332787,"367":-0.05906633287668228,"368":-0.018676912412047386,"369":-0.07445108145475388,"370":0.054940689355134964,"371":0.013852220959961414,"372":-0.01582360826432705,"373":-0.07057277858257294,"374":-0.05980648100376129,"375":0.04546431079506874,"376":0.024359144270420074,"377":0.009615125134587288,"378":-0.008583066053688526,"379":-0.05843305215239525,"380":0.03692128136754036,"381":0.07512109726667404,"382":0.032182276248931885,"383":-0.06699976325035095,"384":-0.010041317902505398,"385":-0.06379803270101547,"386":0.0037196301855146885,"387":0.03757685050368309,"388":0.03435596823692322,"389":-0.05427919328212738,"390":0.034593962132930756,"391":0.06271109730005264,"392":0.001527432119473815,"393":-0.03134189173579216,"394":-0.030165929347276688,"395":-0.004801142495125532,"396":0.0459149070084095,"397":-0.02402643673121929,"398":0.06563051044940948,"399":-0.017302172258496284}},"forgetBias":{"rows":20,"columns":1,"weights":{"0":0,"1":0,"2":0,"3":0,"4":0,"5":0,"6":0,"7":0,"8":0,"9":0,"10":0,"11":0,"12":0,"13":0,"14":0,"15":0,"16":0,"17":0,"18":0,"19":0}},"outputMatrix":{"rows":20,"columns":5,"weights":{"0":-0.034880075603723526,"1":0.018723344430327415,"2":-0.045314811170101166,"3":0.07510562986135483,"4":-0.034141965210437775,"5":-0.03670869022607803,"6":-0.0636550635099411,"7":-0.023244628682732582,"8":-0.052134521305561066,"9":-0.04508059844374657,"10":-0.016643838956952095,"11":-0.06661559641361237,"12":-0.007494835648685694,"13":0.07438287138938904,"14":-0.04912859946489334,"15":-0.023582234978675842,"16":-0.0681452825665474,"17":0.00037487014196813107,"18":-0.017216812819242477,"19":-0.06712640821933746,"20":0.058372922241687775,"21":-0.02807837724685669,"22":0.05415426939725876,"23":-0.018872739747166634,"24":-0.020635031163692474,"25":-0.07639957219362259,"26":0.07177232205867767,"27":-0.05576451122760773,"28":0.01520765945315361,"29":-0.06546026468276978,"30":0.02874569036066532,"31":-0.03598654642701149,"32":0.02023375779390335,"33":0.01832624338567257,"34":0.07034504413604736,"35":0.024470092728734016,"36":0.0648118332028389,"37":-0.010530696250498295,"38":-0.048594675958156586,"39":0.04499300569295883,"40":-0.021678995341062546,"41":-0.019928276538848877,"42":-0.0432441271841526,"43":-0.05568874627351761,"44":0.041821710765361786,"45":0.010600287467241287,"46":0.06914114207029343,"47":-0.0703490674495697,"48":0.037311822175979614,"49":0.06312065571546555,"50":-0.006523649673908949,"51":-0.0040116324089467525,"52":-0.0037757549434900284,"53":0.05822214484214783,"54":0.04634692892432213,"55":0.032383717596530914,"56":0.04140215367078781,"57":-0.00780606921762228,"58":-0.0537855327129364,"59":0.04818874970078468,"60":-0.0406159982085228,"61":-0.06811308115720749,"62":-0.023474765941500664,"63":-0.04780736565589905,"64":-0.05684378370642662,"65":0.06573929637670517,"66":-0.05445475876331329,"67":-0.01333631481975317,"68":-0.04700332134962082,"69":0.052188996225595474,"70":-0.008539209142327309,"71":0.049687739461660385,"72":-0.00788748450577259,"73":-0.06832335889339447,"74":0.009213663637638092,"75":-0.05159952491521835,"76":0.06578966975212097,"77":-0.07097485661506653,"78":-0.039650481194257736,"79":0.013201012276113033,"80":-0.04072157293558121,"81":-0.003923322074115276,"82":0.05812956392765045,"83":-0.04462837427854538,"84":-0.045035578310489655,"85":0.006879450753331184,"86":-0.056268736720085144,"87":-0.012631027027964592,"88":0.06595733016729355,"89":0.009210838004946709,"90":0.07073785364627838,"91":0.05305292084813118,"92":0.007280103862285614,"93":0.0031784719321876764,"94":-0.0734386295080185,"95":-0.023655759170651436,"96":-0.06873572617769241,"97":-0.05312292277812958,"98":0.032809339463710785,"99":-0.043975889682769775}},"outputHidden":{"rows":20,"columns":20,"weights":{"0":0.020320046693086624,"1":0.05363794416189194,"2":0.06165309250354767,"3":0.060173071920871735,"4":0.005521012935787439,"5":0.015298251062631607,"6":0.032209210097789764,"7":0.05541479215025902,"8":0.05736101046204567,"9":0.06306245177984238,"10":0.05644208937883377,"11":0.034949466586112976,"12":0.026030026376247406,"13":0.030038772150874138,"14":0.0627608448266983,"15":0.05754486843943596,"16":-0.0639108270406723,"17":-0.06784901767969131,"18":0.07634437829256058,"19":-0.0375521257519722,"20":-0.028988756239414215,"21":0.022693388164043427,"22":0.07957293093204498,"23":0.06470128893852234,"24":0.06525778770446777,"25":-0.005784288048744202,"26":-0.02015315555036068,"27":0.02008780837059021,"28":0.05423516780138016,"29":-0.04055528715252876,"30":0.042405564337968826,"31":-0.0388157032430172,"32":-0.04011443257331848,"33":0.026559246703982353,"34":-0.008444031700491905,"35":-0.003128482960164547,"36":0.020631544291973114,"37":0.025973906740546227,"38":0.048947885632514954,"39":0.04038268327713013,"40":0.05461932718753815,"41":-0.049166519194841385,"42":0.07311928272247314,"43":0.03534398600459099,"44":0.020406069234013557,"45":-0.04545911028981209,"46":0.01851392351090908,"47":0.07978080213069916,"48":-0.02334139496088028,"49":-0.04180366173386574,"50":0.021551193669438362,"51":-0.047740623354911804,"52":0.07243406027555466,"53":0.054263100028038025,"54":-0.07815727591514587,"55":0.07665184140205383,"56":0.06947360187768936,"57":0.05948501452803612,"58":0.05023190751671791,"59":0.04579935595393181,"60":0.008960175327956676,"61":0.02118195965886116,"62":-0.014409855008125305,"63":-0.044584423303604126,"64":-0.022494221106171608,"65":-0.03815607726573944,"66":0.06213952600955963,"67":0.04617471247911453,"68":0.03976409137248993,"69":0.05516020581126213,"70":-0.041900042444467545,"71":0.041432470083236694,"72":0.038913436233997345,"73":0.017300982028245926,"74":-0.005088205449283123,"75":0.03482519090175629,"76":-0.03502335399389267,"77":0.052557263523340225,"78":0.04232555627822876,"79":-0.03852395713329315,"80":0.01653973199427128,"81":-0.005748681724071503,"82":-0.015666836872696877,"83":-0.06371399760246277,"84":-0.05454404279589653,"85":0.04109117016196251,"86":0.06299030780792236,"87":-0.044192615896463394,"88":0.037751439958810806,"89":0.06371787190437317,"90":0.000522201182320714,"91":-0.055745311081409454,"92":0.07525377720594406,"93":0.05909515172243118,"94":0.04600772634148598,"95":-0.05428672581911087,"96":0.07007245719432831,"97":0.07655707746744156,"98":-0.04669885337352753,"99":0.06527186185121536,"100":-0.02021380141377449,"101":-0.057786062359809875,"102":-0.011283906176686287,"103":-0.0012231915025040507,"104":0.040821775794029236,"105":0.011894299648702145,"106":-0.07233200967311859,"107":0.015823088586330414,"108":-0.03839170187711716,"109":-0.019967496395111084,"110":0.07945570349693298,"111":0.002871454693377018,"112":-0.05913396179676056,"113":0.012558520771563053,"114":-0.026788635179400444,"115":-0.018661579117178917,"116":-0.019151046872138977,"117":-0.03510521724820137,"118":-0.024722516536712646,"119":-0.038490768522024155,"120":-0.050338264554739,"121":-0.07206887751817703,"122":-0.07930482178926468,"123":0.021654659882187843,"124":0.03936300426721573,"125":-0.06100354343652725,"126":-0.072564035654068,"127":-0.03138577193021774,"128":-0.03314715623855591,"129":-0.03102055750787258,"130":0.05152212828397751,"131":-0.028854267671704292,"132":0.046348024159669876,"133":0.03224242478609085,"134":0.0556621216237545,"135":-0.04838206619024277,"136":-0.0423092357814312,"137":0.022631702944636345,"138":0.011109311133623123,"139":0.04149271920323372,"140":0.050382040441036224,"141":-0.02233665995299816,"142":-0.019521920010447502,"143":0.0085036875680089,"144":-0.026629965752363205,"145":0.03165670111775398,"146":0.03363719582557678,"147":-0.00921737588942051,"148":0.0013255956582725048,"149":0.06426969915628433,"150":0.02440139651298523,"151":0.021862132474780083,"152":0.005256070289760828,"153":0.05869878828525543,"154":0.032495368272066116,"155":-0.04470962658524513,"156":0.06663994491100311,"157":0.053616154938936234,"158":-0.015902051702141762,"159":0.05876449868083,"160":-0.022882459685206413,"161":0.022619502618908882,"162":0.07817833125591278,"163":-0.031048884615302086,"164":0.06630738824605942,"165":0.020547116175293922,"166":-0.021694716066122055,"167":-0.0766279324889183,"168":0.07253627479076385,"169":0.05984928086400032,"170":-0.04708313196897507,"171":0.05529698729515076,"172":-0.06843282282352448,"173":0.012886447831988335,"174":0.06691976636648178,"175":0.04152058809995651,"176":0.07318929582834244,"177":0.008359070867300034,"178":-0.07198456674814224,"179":0.05496707931160927,"180":-0.025612885132431984,"181":-0.009913206100463867,"182":-0.006747027859091759,"183":0.034828998148441315,"184":0.03591656684875488,"185":-0.058678265661001205,"186":-0.07560506463050842,"187":0.06999803334474564,"188":0.014368372038006783,"189":-0.05531787499785423,"190":-0.002047561574727297,"191":0.024466324597597122,"192":0.07213898748159409,"193":-0.03566542640328407,"194":0.01117730513215065,"195":-0.008952606469392776,"196":0.0010051283752545714,"197":0.06304401904344559,"198":-0.03542396053671837,"199":-0.03957374021410942,"200":-0.028852490708231926,"201":0.06545571237802505,"202":-0.07168231159448624,"203":0.04827572777867317,"204":0.04506276175379753,"205":0.0018189988331869245,"206":0.06771516054868698,"207":0.004605285357683897,"208":-0.04320504516363144,"209":-0.018912335857748985,"210":0.02415967732667923,"211":0.034044407308101654,"212":-0.0017167702317237854,"213":-0.022873079404234886,"214":-0.060641396790742874,"215":-0.05855749174952507,"216":0.0289439894258976,"217":0.02935226634144783,"218":-0.03884202614426613,"219":0.03850559890270233,"220":-0.06310369074344635,"221":-0.029078636318445206,"222":0.006338709965348244,"223":-0.05153742805123329,"224":-0.05004942789673805,"225":-0.023944420740008354,"226":-0.04555646702647209,"227":0.05668415501713753,"228":0.04194708541035652,"229":0.0002358844067202881,"230":0.0794294998049736,"231":-0.06738397479057312,"232":0.07714204490184784,"233":-0.07947192341089249,"234":-0.016422314569354057,"235":-0.05577002465724945,"236":0.006915937177836895,"237":0.06517499685287476,"238":-0.04164697229862213,"239":-0.04999701678752899,"240":-0.06610380113124847,"241":-0.05352409929037094,"242":0.06507103890180588,"243":-0.01808871515095234,"244":-0.05379429832100868,"245":0.009806307964026928,"246":0.02485891617834568,"247":-0.05739353597164154,"248":-0.018516207113862038,"249":-0.05615684762597084,"250":-0.01543385162949562,"251":0.03007986769080162,"252":0.022380070760846138,"253":0.07816597074270248,"254":0.04617289826273918,"255":0.03178877755999565,"256":-0.050185639411211014,"257":0.03257713094353676,"258":0.07197313010692596,"259":-0.0574021190404892,"260":0.019194558262825012,"261":0.028554119169712067,"262":-0.03427175432443619,"263":0.07069256901741028,"264":0.0598430410027504,"265":0.026854591444134712,"266":0.027835741639137268,"267":0.07465628534555435,"268":-0.007514864671975374,"269":0.06152157112956047,"270":-0.011929763481020927,"271":0.010266176424920559,"272":-0.051344309002161026,"273":-0.02861063741147518,"274":0.07770510017871857,"275":0.02744867652654648,"276":0.031092718243598938,"277":-0.0015954062109813094,"278":-0.03639385104179382,"279":-0.013588623143732548,"280":-0.008467363193631172,"281":0.018335385248064995,"282":0.04295738786458969,"283":-0.06976788491010666,"284":0.04531840234994888,"285":0.03125278279185295,"286":0.025050461292266846,"287":0.0505741648375988,"288":-0.049280788749456406,"289":0.06799475103616714,"290":0.0770147293806076,"291":-0.049469925463199615,"292":-0.013561299070715904,"293":0.03976360335946083,"294":-0.031863607466220856,"295":0.02792288362979889,"296":-0.005954517051577568,"297":0.046416208148002625,"298":0.03289872035384178,"299":0.07051129639148712,"300":-0.0073334830813109875,"301":-0.05514976382255554,"302":0.004029674921184778,"303":0.01376794558018446,"304":-0.04114991053938866,"305":-0.07126176357269287,"306":-0.07042262703180313,"307":0.050939708948135376,"308":-0.005032758228480816,"309":0.00680750235915184,"310":0.039932090789079666,"311":0.007543709594756365,"312":-0.04719141498208046,"313":0.048020996153354645,"314":-0.062007755041122437,"315":-0.07229720056056976,"316":-0.050859369337558746,"317":0.07206259667873383,"318":0.043142374604940414,"319":-0.036155518144369125,"320":-0.07083480060100555,"321":-0.06464178115129471,"322":-0.07935935258865356,"323":-0.040229734033346176,"324":-0.0767892599105835,"325":0.02307913638651371,"326":0.009965977631509304,"327":-0.0162177924066782,"328":-0.004658814985305071,"329":0.059206005185842514,"330":0.07204753160476685,"331":-0.05912962183356285,"332":-0.028580283746123314,"333":0.07009311020374298,"334":0.042003463953733444,"335":-0.0635460838675499,"336":-0.019428057596087456,"337":-0.07288560271263123,"338":-0.0794781893491745,"339":-0.05487953871488571,"340":0.04505503922700882,"341":-0.030926454812288284,"342":-0.016349978744983673,"343":0.01099254097789526,"344":0.021276112645864487,"345":0.04763913154602051,"346":0.0025979659985750914,"347":0.03537186607718468,"348":0.05357081815600395,"349":0.01669890061020851,"350":0.04072113707661629,"351":0.012453294359147549,"352":0.07077499479055405,"353":-0.06933488696813583,"354":0.05413379147648811,"355":0.053559087216854095,"356":0.0692150816321373,"357":-0.03446435183286667,"358":-0.016361843794584274,"359":0.07940668612718582,"360":0.003942486830055714,"361":-0.05045463889837265,"362":0.01553146168589592,"363":0.005315785761922598,"364":-0.011211448349058628,"365":0.011500481516122818,"366":-0.05364727973937988,"367":0.052969105541706085,"368":0.01770877279341221,"369":-0.00981150008738041,"370":-0.06880572438240051,"371":-0.047817520797252655,"372":-0.05194004997611046,"373":0.014133600518107414,"374":-0.05680948123335838,"375":-0.06569681316614151,"376":0.013434444554150105,"377":0.043844666332006454,"378":0.06648636609315872,"379":0.04592660441994667,"380":0.058305054903030396,"381":-0.06219785287976265,"382":-0.044571440666913986,"383":-0.026206092908978462,"384":-0.030234672129154205,"385":-0.047472961246967316,"386":0.032597076147794724,"387":0.06080986559391022,"388":-0.0033576127607375383,"389":-0.06722477078437805,"390":-0.036046985536813736,"391":-0.028879469260573387,"392":0.0321018323302269,"393":0.0630749762058258,"394":-0.001120861154049635,"395":0.0385109968483448,"396":0.0052477712742984295,"397":0.03798401728272438,"398":0.06507351249456406,"399":-0.004301746375858784}},"outputBias":{"rows":20,"columns":1,"weights":{"0":0,"1":0,"2":0,"3":0,"4":0,"5":0,"6":0,"7":0,"8":0,"9":0,"10":0,"11":0,"12":0,"13":0,"14":0,"15":0,"16":0,"17":0,"18":0,"19":0}},"cellActivationMatrix":{"rows":20,"columns":5,"weights":{"0":-0.04560336470603943,"1":0.02844187058508396,"2":-0.06328221410512924,"3":-0.06927303224802017,"4":0.017800522968173027,"5":0.05071927607059479,"6":-0.03296705335378647,"7":-0.0015954326372593641,"8":0.017374353483319283,"9":-0.054983414709568024,"10":0.019829707220196724,"11":0.04330262169241905,"12":0.026815200224518776,"13":-0.00022482640633825213,"14":-0.015252789482474327,"15":-0.0036723006051033735,"16":-0.04541086405515671,"17":0.055040933191776276,"18":-0.06565795838832855,"19":0.038915157318115234,"20":-0.07512050122022629,"21":0.043516818434000015,"22":0.06362178921699524,"23":-0.04546920210123062,"24":-0.00550093175843358,"25":-0.05304457247257233,"26":-0.07356595247983932,"27":-0.04623270779848099,"28":0.03497696295380592,"29":-0.07311829179525375,"30":0.06202522665262222,"31":0.0770733505487442,"32":-0.013359097763895988,"33":0.014252876862883568,"34":-0.031164253130555153,"35":-0.0506787933409214,"36":0.03854871913790703,"37":-0.00406526867300272,"38":0.058375030755996704,"39":0.06724710762500763,"40":0.03188781440258026,"41":0.045792751014232635,"42":-0.0030605588108301163,"43":0.02669958956539631,"44":0.027162928134202957,"45":-0.027009157463908195,"46":0.02233036793768406,"47":0.01452234759926796,"48":0.07418522238731384,"49":0.06070622429251671,"50":0.03879966959357262,"51":0.010681870393455029,"52":-0.05205903574824333,"53":0.011762469075620174,"54":0.017003532499074936,"55":0.05227185785770416,"56":0.05175806209445,"57":-0.05898674204945564,"58":0.03147988021373749,"59":0.06603150814771652,"60":-0.0036388016305863857,"61":0.004450028762221336,"62":0.044891078025102615,"63":0.031466227024793625,"64":-0.04957655817270279,"65":0.05808672308921814,"66":0.07692976295948029,"67":0.01796976663172245,"68":0.0482046864926815,"69":0.032506223767995834,"70":0.07115882635116577,"71":-0.011617977172136307,"72":0.05949525162577629,"73":-0.01947432942688465,"74":0.0361049510538578,"75":0.020076196640729904,"76":0.0721883699297905,"77":0.06187180057168007,"78":0.021179979667067528,"79":0.026574255898594856,"80":-0.07486921548843384,"81":0.008931275457143784,"82":0.07258044183254242,"83":-0.07666555047035217,"84":-0.017621463164687157,"85":0.046433668583631516,"86":-0.06581498682498932,"87":-0.0052543519996106625,"88":0.035664502531290054,"89":-0.052669163793325424,"90":-0.06607498973608017,"91":-0.011195407249033451,"92":0.057077232748270035,"93":0.05564608797430992,"94":0.017069397494196892,"95":0.041274894028902054,"96":-0.023740988224744797,"97":-0.01571684330701828,"98":0.06822432577610016,"99":-0.06394476443529129}},"cellActivationHidden":{"rows":20,"columns":20,"weights":{"0":-0.02604641765356064,"1":-0.04507587477564812,"2":0.027031894773244858,"3":-0.07459086179733276,"4":-0.031118787825107574,"5":-0.06898902356624603,"6":-0.000962032878305763,"7":0.0028907530941069126,"8":-0.028636006638407707,"9":0.028689980506896973,"10":-0.06973106414079666,"11":-0.05225204676389694,"12":0.0761600062251091,"13":-0.03208820894360542,"14":-0.05845017731189728,"15":-0.060560159385204315,"16":-0.009554973803460598,"17":-0.010839923284947872,"18":0.04114971682429314,"19":0.05740790814161301,"20":-0.021635394543409348,"21":-0.04046253114938736,"22":-0.06187306344509125,"23":0.05010013282299042,"24":-0.0328461118042469,"25":-0.005179827567189932,"26":-0.0043836296536028385,"27":-0.009110449813306332,"28":0.014363120310008526,"29":0.05020071938633919,"30":0.018237289041280746,"31":-0.07023472338914871,"32":-0.033964209258556366,"33":-0.004154662135988474,"34":0.05519067123532295,"35":0.04496663063764572,"36":0.026793939992785454,"37":-0.03878504037857056,"38":-0.0754285529255867,"39":0.05083266273140907,"40":-0.07121878862380981,"41":0.07723579555749893,"42":0.009909013286232948,"43":0.005898018833249807,"44":-0.0021457409020513296,"45":-0.0708518847823143,"46":0.04500029981136322,"47":-0.036835670471191406,"48":-0.010442214086651802,"49":0.07238948345184326,"50":0.0073185451328754425,"51":0.0038588177412748337,"52":-0.03893624618649483,"53":0.06966269761323929,"54":0.028787100687623024,"55":0.030035056173801422,"56":-0.022548414766788483,"57":-0.017847346141934395,"58":0.05808451026678085,"59":-0.07308831065893173,"60":0.06056332215666771,"61":0.05302691459655762,"62":-0.015194372273981571,"63":-0.07016853243112564,"64":0.054581016302108765,"65":-0.04004363715648651,"66":0.026627663522958755,"67":0.029783807694911957,"68":0.06354835629463196,"69":-0.07396753132343292,"70":-0.04222279042005539,"71":0.0065034846775233746,"72":-0.005095944739878178,"73":-0.011605525389313698,"74":0.06837756186723709,"75":-0.003617684356868267,"76":0.07682791352272034,"77":-0.06364385783672333,"78":-0.0760391429066658,"79":0.06837698817253113,"80":-0.07828576117753983,"81":0.05279466137290001,"82":0.0074171507731080055,"83":0.057177964597940445,"84":-0.06716334074735641,"85":-0.07718071341514587,"86":-0.010874323546886444,"87":-0.01850539818406105,"88":0.05416761711239815,"89":0.04854298010468483,"90":-0.06314466148614883,"91":-0.016998762264847755,"92":0.04708527401089668,"93":0.03739316388964653,"94":0.04546630382537842,"95":0.07282480597496033,"96":0.0124437864869833,"97":0.045582011342048645,"98":-0.04118785634636879,"99":0.013983430340886116,"100":-0.07900811731815338,"101":-0.062111444771289825,"102":0.009303680621087551,"103":-0.05338398739695549,"104":0.03877510875463486,"105":0.0005078333197161555,"106":-0.054095033556222916,"107":-0.03457733243703842,"108":0.018629135563969612,"109":-0.031338468194007874,"110":0.0033826075959950686,"111":0.06144082546234131,"112":-0.062233008444309235,"113":-0.015376761555671692,"114":-0.012035069987177849,"115":-0.0395919494330883,"116":-0.023873109370470047,"117":-0.008670416660606861,"118":0.018179841339588165,"119":0.023106250911951065,"120":0.0163761954754591,"121":-0.054641950875520706,"122":0.056725941598415375,"123":0.05358761548995972,"124":-0.07982926070690155,"125":0.04843811318278313,"126":-0.07609739899635315,"127":-0.028374234214425087,"128":-0.02149530127644539,"129":0.06315457820892334,"130":0.000687840802129358,"131":0.01207605842500925,"132":0.07966972887516022,"133":0.0246967151761055,"134":-0.005125968251377344,"135":0.0038648834452033043,"136":-0.06247691437602043,"137":-0.014496718533337116,"138":-0.017766164615750313,"139":0.027039827778935432,"140":0.0005525350570678711,"141":-0.02352203242480755,"142":0.07768592983484268,"143":0.06143970042467117,"144":0.0515543632209301,"145":-0.016634415835142136,"146":0.013932094909250736,"147":-0.012241668999195099,"148":0.03328873962163925,"149":-0.07366770505905151,"150":-0.055630434304475784,"151":0.033609747886657715,"152":-0.026579048484563828,"153":-0.009601196274161339,"154":0.0058805570006370544,"155":-0.06086662411689758,"156":0.01182739157229662,"157":0.0066897268407046795,"158":0.06145986542105675,"159":0.006290924735367298,"160":0.04259592294692993,"161":-0.016879595816135406,"162":-0.05592295899987221,"163":0.022261427715420723,"164":-0.06324488669633865,"165":0.0165678970515728,"166":0.03607242926955223,"167":-0.04573265090584755,"168":0.07002875953912735,"169":-0.04716635122895241,"170":-0.07537230104207993,"171":0.06337328255176544,"172":-0.07260119915008545,"173":-0.018879927694797516,"174":0.021466001868247986,"175":-0.05683019384741783,"176":-0.025341983884572983,"177":-0.01601632498204708,"178":-0.06066920980811119,"179":0.023124635219573975,"180":0.06698727607727051,"181":0.01954541727900505,"182":0.07801257073879242,"183":0.05780044570565224,"184":0.06838318705558777,"185":-0.04823332279920578,"186":0.005641724448651075,"187":0.07337063550949097,"188":0.07156004756689072,"189":-0.048124317079782486,"190":0.07789567112922668,"191":0.04966338723897934,"192":0.056581709533929825,"193":0.033533595502376556,"194":-0.042886096984148026,"195":-0.06934431195259094,"196":0.0014616625849157572,"197":-0.003298879601061344,"198":-0.037875037640333176,"199":0.03327234834432602,"200":0.04239730164408684,"201":-0.07096698880195618,"202":-0.01904473640024662,"203":0.040847983211278915,"204":0.07132905721664429,"205":-0.04572805389761925,"206":-0.019635863602161407,"207":-0.042033541947603226,"208":0.052493203431367874,"209":-0.05868256464600563,"210":0.06627392023801804,"211":0.0728461742401123,"212":0.052694205194711685,"213":-0.019668562337756157,"214":0.0668371394276619,"215":0.05575208738446236,"216":-0.011139712296426296,"217":0.04309304431080818,"218":0.06897374242544174,"219":-0.044558409601449966,"220":0.06629230082035065,"221":-0.05435986816883087,"222":0.04327023774385452,"223":0.04246900603175163,"224":0.01658131182193756,"225":0.05741776153445244,"226":-0.07381398230791092,"227":0.039617665112018585,"228":-0.07757457345724106,"229":-0.040644727647304535,"230":0.07744588702917099,"231":-0.061327408999204636,"232":0.03395518288016319,"233":0.06797531247138977,"234":0.06302141398191452,"235":0.05454085022211075,"236":0.02142382226884365,"237":-0.0696144551038742,"238":-0.05465354770421982,"239":0.057327575981616974,"240":0.035373587161302567,"241":-0.06652893871068954,"242":-0.031465284526348114,"243":-0.032727718353271484,"244":0.05987562984228134,"245":0.010459867306053638,"246":0.020643645897507668,"247":0.024732476100325584,"248":-0.0015199246117845178,"249":0.04233761504292488,"250":-0.05523965135216713,"251":-0.020467525348067284,"252":-0.0460066981613636,"253":0.05835281312465668,"254":0.03286021575331688,"255":-0.028891153633594513,"256":-0.026066578924655914,"257":0.016118690371513367,"258":0.03569883480668068,"259":-0.018656589090824127,"260":0.06937496364116669,"261":-0.02230532094836235,"262":-0.028261108323931694,"263":0.03003682941198349,"264":-0.01787627674639225,"265":-0.041359517723321915,"266":-0.005737871862947941,"267":-0.052049435675144196,"268":0.022944053635001183,"269":-0.012395787052810192,"270":0.06885548681020737,"271":0.07626644521951675,"272":-0.002267340198159218,"273":0.043800417333841324,"274":-0.012659268453717232,"275":0.0657617598772049,"276":-0.03779920935630798,"277":-0.019841913133859634,"278":-0.01937294937670231,"279":-0.07900288701057434,"280":-0.06898847222328186,"281":0.019395815208554268,"282":0.06428542733192444,"283":0.0025189078878611326,"284":0.026568664237856865,"285":-0.050987981259822845,"286":-0.0772341638803482,"287":-0.008708321489393711,"288":-0.04981919005513191,"289":0.058062974363565445,"290":0.03973276540637016,"291":-0.04803435504436493,"292":-0.039354998618364334,"293":0.03267286345362663,"294":-0.024228893220424652,"295":-0.016653520986437798,"296":-0.021349191665649414,"297":0.011127426289021969,"298":0.0454881377518177,"299":-0.04024031013250351,"300":-0.07336926460266113,"301":-0.024715514853596687,"302":0.04828644171357155,"303":-0.013588354922831059,"304":-0.009343510493636131,"305":-0.06588172167539597,"306":0.0610172338783741,"307":0.03848061338067055,"308":0.015944454818964005,"309":0.025110578164458275,"310":-0.02236879989504814,"311":-0.07682421058416367,"312":0.06643831729888916,"313":-0.022055186331272125,"314":0.051346566528081894,"315":-0.04247695207595825,"316":0.06544239073991776,"317":-0.04801351949572563,"318":0.02247565984725952,"319":0.027124660089612007,"320":-0.03902120888233185,"321":-0.004068361129611731,"322":-0.010698900558054447,"323":0.05929727479815483,"324":0.033534422516822815,"325":-0.07970121502876282,"326":-0.054196037352085114,"327":-0.043348729610443115,"328":-0.04233178868889809,"329":-0.046340592205524445,"330":-0.05045462027192116,"331":0.0006802593707107008,"332":-0.04415101930499077,"333":-0.06750684231519699,"334":0.06372229754924774,"335":-0.022315260022878647,"336":-0.012570363469421864,"337":0.004044072702527046,"338":-0.05048224702477455,"339":-0.03496687114238739,"340":-0.04195785149931908,"341":-0.057139262557029724,"342":-0.02236911840736866,"343":0.04683316871523857,"344":-0.06673435866832733,"345":0.06194111704826355,"346":-0.004876738414168358,"347":-0.07259245961904526,"348":-0.07953006774187088,"349":-0.04313454031944275,"350":-0.056611109524965286,"351":-0.0756956934928894,"352":-0.05248931422829628,"353":0.0070770480670034885,"354":-0.022836370393633842,"355":0.019981374964118004,"356":0.0590549036860466,"357":0.06593006104230881,"358":0.04269203171133995,"359":0.013630005531013012,"360":0.024527324363589287,"361":-0.03425869718194008,"362":-0.021103112027049065,"363":0.05668415129184723,"364":-0.02129712514579296,"365":-0.07976434379816055,"366":0.06656843423843384,"367":-0.03239961713552475,"368":0.017307328060269356,"369":-0.05353507399559021,"370":-0.07643631845712662,"371":-0.07022082805633545,"372":0.07047852128744125,"373":-0.07011526077985764,"374":0.023525062948465347,"375":0.04592737928032875,"376":0.001086286036297679,"377":-0.013091523200273514,"378":-0.0031179708894342184,"379":-0.07985159754753113,"380":-0.02125939354300499,"381":0.01284654438495636,"382":-0.033143460750579834,"383":-0.07804146409034729,"384":-0.041885506361722946,"385":-0.01905767247080803,"386":0.029234381392598152,"387":0.008887543343007565,"388":-0.053444113582372665,"389":-0.03381919860839844,"390":0.023134710267186165,"391":0.007055449299514294,"392":-0.011384977959096432,"393":-0.017252929508686066,"394":0.06806601583957672,"395":0.012854046188294888,"396":0.03622198477387428,"397":-0.008335156366229057,"398":0.058972492814064026,"399":0.04990268871188164}},"cellActivationBias":{"rows":20,"columns":1,"weights":{"0":0,"1":0,"2":0,"3":0,"4":0,"5":0,"6":0,"7":0,"8":0,"9":0,"10":0,"11":0,"12":0,"13":0,"14":0,"15":0,"16":0,"17":0,"18":0,"19":0}}}],"outputConnector":{"rows":5,"columns":20,"weights":{"0":-0.06786616891622543,"1":-0.053456272929906845,"2":-0.006439508870244026,"3":0.01494610495865345,"4":0.04770674183964729,"5":-0.024191923439502716,"6":-0.21090088784694672,"7":0.14871637523174286,"8":0.017483213916420937,"9":-0.05484369397163391,"10":0.10793005675077438,"11":0.06779711693525314,"12":0.07252782583236694,"13":0.06765790283679962,"14":0.08601541817188263,"15":0.07461876422166824,"16":-0.06352809071540833,"17":-0.1370479017496109,"18":-0.07274334132671356,"19":-0.07424536347389221,"20":-0.056371886283159256,"21":-0.05355967581272125,"22":-0.03827483579516411,"23":-0.00008787622937234119,"24":-0.028099577873945236,"25":-0.003383002942427993,"26":-0.08482477068901062,"27":0.1931314468383789,"28":-0.05280665308237076,"29":0.01778336614370346,"30":0.029388297349214554,"31":0.09264090657234192,"32":-0.0747513473033905,"33":0.07633836567401886,"34":0.06779970973730087,"35":0.10153775662183762,"36":-0.006441656034439802,"37":-0.11020047217607498,"38":-0.007297114003449678,"39":-0.025616275146603584,"40":0.07185562700033188,"41":0.01388868410140276,"42":-0.0654393807053566,"43":0.06924211233854294,"44":0.03613097220659256,"45":-0.04202498868107796,"46":-0.059759363532066345,"47":0.12027601152658463,"48":-0.016901109367609024,"49":-0.01616000011563301,"50":0.1324337273836136,"51":0.11991186439990997,"52":-0.07851575314998627,"53":0.08867950737476349,"54":0.09493406862020493,"55":0.0973208099603653,"56":0.05725106969475746,"57":-0.15519779920578003,"58":0.0485176146030426,"59":-0.0677328109741211,"60":0.04543612524867058,"61":0.0755465105175972,"62":-0.04279785975813866,"63":0.022931329905986786,"64":-0.043476566672325134,"65":0.03177104517817497,"66":-0.12515190243721008,"67":0.1351652890443802,"68":0.048740897327661514,"69":0.008040706627070904,"70":0.08376716822385788,"71":0.17701391875743866,"72":0.00779024139046669,"73":0.07142126560211182,"74":0.1866462677717209,"75":0.1986367404460907,"76":0.040879495441913605,"77":-0.18669475615024567,"78":-0.060215700417757034,"79":-0.06494414061307907,"80":0.008939491584897041,"81":0.05828016996383667,"82":-0.06914328783750534,"83":0.0652870237827301,"84":-0.053024791181087494,"85":-0.06116485223174095,"86":-0.05420214310288429,"87":-0.07205196470022202,"88":-0.04058798775076866,"89":-0.05330249294638634,"90":-0.0692012757062912,"91":-0.0536445751786232,"92":-0.0027024324517697096,"93":-0.025000065565109253,"94":0.07311428338289261,"95":-0.026721708476543427,"96":0.013009849935770035,"97":0.030269555747509003,"98":-0.06584235280752182,"99":0.021424641832709312}},"output":{"rows":5,"columns":1,"weights":{"0":27.138076782226562,"1":26.348037719726562,"2":27.182392120361328,"3":25.656850814819336,"4":0.015708643943071365}}}{"type":"LSTMTimeStep","options":{"inputSize":5,"hiddenLayers":[20],"outputSize":5,"decayRate":0.999,"smoothEps":1e-8,"regc":0.000001,"clipval":5},"hiddenLayers":[{"inputMatrix":{"rows":20,"columns":5,"weights":{"0":-0.013135133311152458,"1":0.06997382640838623,"2":-0.06747640669345856,"3":0.056896694004535675,"4":0.0021792196203023195,"5":-0.025985203683376312,"6":-0.0651436597108841,"7":0.07229357212781906,"8":-0.03253868594765663,"9":0.05534171685576439,"10":0.04449482262134552,"11":-0.01301356591284275,"12":-0.0455629825592041,"13":-0.020187972113490105,"14":0.07612838596105576,"15":-0.026302795857191086,"16":-0.010463492013514042,"17":0.05166371911764145,"18":-0.027682626619935036,"19":-0.01326167955994606,"20":-0.019640443846583366,"21":0.027096960693597794,"22":0.029815489426255226,"23":0.010199563577771187,"24":-0.033288709819316864,"25":0.008047163486480713,"26":-0.04145359620451927,"27":-0.0694696381688118,"28":0.05603561922907829,"29":-0.003469242947176099,"30":0.07793185114860535,"31":-0.043451935052871704,"32":0.049779266119003296,"33":-0.038716159760951996,"34":-0.04548977315425873,"35":-0.01252061314880848,"36":-0.07041405141353607,"37":0.0589427724480629,"38":-0.0334206260740757,"39":0.06999551504850388,"40":-0.038021545857191086,"41":0.01935245469212532,"42":-0.06602133065462112,"43":0.0029455777257680893,"44":-0.03898787125945091,"45":-0.07587163150310516,"46":0.004053093958646059,"47":0.05085498094558716,"48":-0.01810637302696705,"49":-0.022202173247933388,"50":0.033413562923669815,"51":-0.07026389241218567,"52":-0.0713382288813591,"53":-0.06016092747449875,"54":0.008019446395337582,"55":-0.035066720098257065,"56":0.03648572042584419,"57":0.03487937152385712,"58":-0.07783008366823196,"59":0.05086301639676094,"60":0.06851323693990707,"61":-0.056494928896427155,"62":0.027861054986715317,"63":-0.065372996032238,"64":0.02828115224838257,"65":0.05203744396567345,"66":-0.06331031769514084,"67":-0.07894136011600494,"68":0.05433131009340286,"69":0.027815762907266617,"70":-0.06930454820394516,"71":0.03929959610104561,"72":-0.07220520824193954,"73":-0.05580192804336548,"74":-0.040231648832559586,"75":0.03997713327407837,"76":0.04902298003435135,"77":-0.06381829082965851,"78":0.004802044481039047,"79":-0.0025992325972765684,"80":-0.009191337041556835,"81":-0.05195058509707451,"82":0.0027595232240855694,"83":-0.047949571162462234,"84":0.06781263649463654,"85":0.011218607425689697,"86":0.06669189780950546,"87":-0.06492312252521515,"88":-0.06434708088636398,"89":0.07286334782838821,"90":0.06076008081436157,"91":-0.029605725780129433,"92":0.0393526516854763,"93":0.07588038593530655,"94":0.05691670626401901,"95":0.017329636961221695,"96":-0.07437433302402496,"97":-0.05095875263214111,"98":0.06757356226444244,"99":-0.012160370126366615}},"inputHidden":{"rows":20,"columns":20,"weights":{"0":0.057656049728393555,"1":-0.015117703936994076,"2":-0.0633358433842659,"3":-0.04294585436582565,"4":-0.05058366805315018,"5":-0.007945841178297997,"6":0.05271650105714798,"7":-0.03965744748711586,"8":-0.006024020258337259,"9":0.007296872790902853,"10":-0.014545759186148643,"11":0.05615374073386192,"12":-0.05137639492750168,"13":0.07813715189695358,"14":-0.07573731243610382,"15":0.02856507897377014,"16":-0.021241070702672005,"17":-0.0019426546059548855,"18":-0.05048545077443123,"19":0.055391162633895874,"20":0.02799784019589424,"21":0.0037594784516841173,"22":0.06669562309980392,"23":0.05190960317850113,"24":0.038415003567934036,"25":-0.017896847799420357,"26":0.04214802384376526,"27":-0.02949829027056694,"28":-0.0045676566660404205,"29":0.03493563085794449,"30":-0.058544814586639404,"31":0.00021954523981548846,"32":-0.04171612113714218,"33":-0.041983045637607574,"34":0.03884998708963394,"35":0.043812431395053864,"36":0.029098697006702423,"37":-0.03423339128494263,"38":-0.02497384324669838,"39":0.0472889244556427,"40":0.06417243927717209,"41":-0.06802405416965485,"42":-0.043247297406196594,"43":0.023313045501708984,"44":0.0505831353366375,"45":0.009041590616106987,"46":0.018901484087109566,"47":-0.049857571721076965,"48":0.04492896422743797,"49":0.033996958285570145,"50":-0.018310824409127235,"51":0.026641640812158585,"52":-0.04507209733128548,"53":-0.029498906806111336,"54":-0.04881783574819565,"55":-0.07910541445016861,"56":0.07082507759332657,"57":-0.07791497558355331,"58":-0.03517000004649162,"59":-0.051010023802518845,"60":-0.07724776864051819,"61":0.019795605912804604,"62":0.022113408893346786,"63":-0.003772282972931862,"64":-0.03219478949904442,"65":0.005844466853886843,"66":0.05976380780339241,"67":-0.03368251398205757,"68":0.038239751011133194,"69":0.018299011513590813,"70":0.04932013899087906,"71":-0.07976454496383667,"72":-0.06619664281606674,"73":-0.008238068781793118,"74":-0.07150773704051971,"75":-0.0521543025970459,"76":-0.015633579343557358,"77":-0.07972612231969833,"78":-0.0162019282579422,"79":0.018524717539548874,"80":-0.03995227813720703,"81":0.04523441940546036,"82":0.004713720176368952,"83":-0.0010335883125662804,"84":-0.005882770288735628,"85":-0.0711633488535881,"86":-0.01907666213810444,"87":-0.0770130455493927,"88":-0.0031820700969547033,"89":-0.018818655982613564,"90":-0.027050528675317764,"91":0.03548740595579147,"92":-0.06137852743268013,"93":0.06570032238960266,"94":-0.04024869576096535,"95":0.058065272867679596,"96":0.0053772348910570145,"97":-0.01817416213452816,"98":0.03754296153783798,"99":-0.06414920091629028,"100":-0.060854554176330566,"101":0.050544265657663345,"102":-0.04897492006421089,"103":-0.0041230046190321445,"104":-0.057648953050374985,"105":-0.068564273416996,"106":0.007589952554553747,"107":-0.0176983792334795,"108":-0.010367011651396751,"109":0.04796600341796875,"110":0.05087779834866524,"111":-0.03285794332623482,"112":0.04439333453774452,"113":-0.032918017357587814,"114":-0.0069639007560908794,"115":-0.06298954039812088,"116":-0.04559817537665367,"117":0.06564296782016754,"118":-0.01892377994954586,"119":0.07766402512788773,"120":0.028530502691864967,"121":0.06132780387997627,"122":0.06523191183805466,"123":0.031616657972335815,"124":-0.027708936482667923,"125":0.0004358873120509088,"126":-0.025171669200062752,"127":0.009264891035854816,"128":0.0711858794093132,"129":0.07689690589904785,"130":-0.002029088092967868,"131":0.06751903891563416,"132":0.056374404579401016,"133":0.06046086177229881,"134":-0.04484333470463753,"135":0.021835101768374443,"136":0.006248044315725565,"137":-0.05751938000321388,"138":0.07828245311975479,"139":0.043014585971832275,"140":0.02427290380001068,"141":0.02148224413394928,"142":0.018707377836108208,"143":-0.025948669761419296,"144":0.01206293050199747,"145":0.07727040350437164,"146":0.07196749746799469,"147":-0.005879146512597799,"148":-0.02036135457456112,"149":0.059519652277231216,"150":0.030724264681339264,"151":-0.006267895456403494,"152":-0.00228002667427063,"153":-0.01976550929248333,"154":-0.01747753843665123,"155":-0.022548526525497437,"156":-0.04526479169726372,"157":-0.026981158182024956,"158":-0.03301975131034851,"159":0.01646621897816658,"160":0.010432696901261806,"161":-0.05617538467049599,"162":-0.03410814329981804,"163":-0.017558930441737175,"164":0.0667685940861702,"165":0.02543940395116806,"166":-0.019635887816548347,"167":0.0155805554240942,"168":0.05233600735664368,"169":-0.07414763420820236,"170":-0.049004264175891876,"171":-0.05456759035587311,"172":-0.06691312044858932,"173":0.052744150161743164,"174":-0.052680108696222305,"175":-0.05137069523334503,"176":-0.03265603259205818,"177":0.06355869770050049,"178":-0.06303340196609497,"179":0.015055610798299313,"180":-0.05452680215239525,"181":-0.04648400843143463,"182":-0.018432511016726494,"183":-0.06607747822999954,"184":-0.009835034608840942,"185":-0.033993907272815704,"186":-0.044886644929647446,"187":-0.03610455244779587,"188":-0.04753190279006958,"189":0.03703239932656288,"190":0.03901563212275505,"191":-0.05842185392975807,"192":0.07306656986474991,"193":0.04268580302596092,"194":0.05685767903923988,"195":-0.011456863023340702,"196":0.00222469842992723,"197":-0.00525298248976469,"198":0.004793207626789808,"199":-0.06854840368032455,"200":-0.01753869466483593,"201":0.04279341921210289,"202":-0.016262013465166092,"203":-0.022383790463209152,"204":-0.048919904977083206,"205":-0.06807918846607208,"206":-0.05207376182079315,"207":-0.05199839174747467,"208":-0.0721704438328743,"209":-0.011722614988684654,"210":0.021573014557361603,"211":0.025337763130664825,"212":0.01886742375791073,"213":0.03359614312648773,"214":0.06678839027881622,"215":-0.06968516856431961,"216":0.012263486161828041,"217":-0.05538955330848694,"218":-0.07294978201389313,"219":0.05271455645561218,"220":0.0014641640009358525,"221":-0.02797122485935688,"222":-0.05806627497076988,"223":0.016379425302147865,"224":0.049641769379377365,"225":0.00926043838262558,"226":-0.04198499023914337,"227":-0.0395941324532032,"228":0.06813787668943405,"229":0.07771523296833038,"230":0.056347016245126724,"231":-0.06366496533155441,"232":-0.0012370316544547677,"233":0.067835733294487,"234":-0.050058554857969284,"235":0.06226584315299988,"236":-0.012762688100337982,"237":-0.05114911496639252,"238":0.038923464715480804,"239":0.07509145885705948,"240":0.07294823229312897,"241":-0.03447489067912102,"242":0.05069705843925476,"243":0.037655796855688095,"244":0.06969185173511505,"245":-0.054937269538640976,"246":-0.02751513011753559,"247":0.027616417035460472,"248":-0.005524015519768,"249":-0.06058778241276741,"250":0.002879961859434843,"251":0.059987857937812805,"252":-0.07598952203989029,"253":0.051353439688682556,"254":0.0012765806168317795,"255":0.004114826209843159,"256":-0.00985782127827406,"257":0.06751377135515213,"258":-0.006084425840526819,"259":0.06253914535045624,"260":0.03268178924918175,"261":-0.06484787166118622,"262":0.023461468517780304,"263":0.059658993035554886,"264":-0.022599447518587112,"265":0.008110320195555687,"266":-0.00838651042431593,"267":-0.02172616869211197,"268":0.06943957507610321,"269":-0.011912594549357891,"270":0.03761335834860802,"271":-0.042798254638910294,"272":0.010325646959245205,"273":0.06630247086286545,"274":-0.01614106446504593,"275":0.07705874741077423,"276":-0.05970347300171852,"277":0.026470579206943512,"278":-0.07345065474510193,"279":0.00468611903488636,"280":-0.026879807934165,"281":-0.04495416209101677,"282":-0.03725174069404602,"283":-0.027986066415905952,"284":-0.0783960372209549,"285":0.020326780155301094,"286":-0.03003348782658577,"287":0.03474607318639755,"288":-0.06532592326402664,"289":0.004570006858557463,"290":-0.03849948197603226,"291":-0.0434783473610878,"292":0.048861462622880936,"293":0.06361228972673416,"294":-0.03266024589538574,"295":-0.04408588632941246,"296":-0.023199578747153282,"297":0.05134626105427742,"298":0.010347030125558376,"299":0.05497438833117485,"300":0.059899087995290756,"301":0.07709411531686783,"302":-0.06375441700220108,"303":0.06685662269592285,"304":0.025185156613588333,"305":0.07619842141866684,"306":0.02173593081533909,"307":0.04063345119357109,"308":0.04471207410097122,"309":0.03080172836780548,"310":-0.038865283131599426,"311":-0.04051312431693077,"312":0.059165481477975845,"313":-0.05584151670336723,"314":0.05068161338567734,"315":-0.03702794760465622,"316":-0.027966061607003212,"317":-0.039403002709150314,"318":0.0665511041879654,"319":-0.06540039926767349,"320":-0.05263396352529526,"321":0.03516996279358864,"322":-0.06335214525461197,"323":0.0519370436668396,"324":-0.025970598682761192,"325":0.06085057556629181,"326":0.04265257343649864,"327":-0.02033880352973938,"328":-0.06242077425122261,"329":0.07962755858898163,"330":0.07442787289619446,"331":0.026964617893099785,"332":-0.026470834389328957,"333":-0.07533403486013412,"334":0.00236300565302372,"335":0.010710065253078938,"336":-0.026731692254543304,"337":0.06811138242483139,"338":-0.05419839546084404,"339":0.030218778178095818,"340":0.05717656388878822,"341":-0.04529466852545738,"342":0.03091067261993885,"343":-0.0220799520611763,"344":0.025345463305711746,"345":-0.05075690150260925,"346":-0.05958264321088791,"347":0.018657319247722626,"348":-0.014551869593560696,"349":0.0023192199878394604,"350":0.07931576669216156,"351":0.044041167944669724,"352":0.055822569876909256,"353":-0.042358141392469406,"354":-0.06107620522379875,"355":0.010872866027057171,"356":0.047548796981573105,"357":0.050093960016965866,"358":-0.028520790860056877,"359":-0.06700925529003143,"360":-0.07992058992385864,"361":-0.07352378964424133,"362":0.04825723543763161,"363":-0.04261855408549309,"364":0.00021825425210408866,"365":-0.007600702345371246,"366":0.018627474084496498,"367":-0.03689921274781227,"368":0.02570776455104351,"369":0.05498006194829941,"370":0.0016554257599636912,"371":-0.0683005228638649,"372":-0.027023939415812492,"373":-0.06259233504533768,"374":0.0608581006526947,"375":-0.04185853525996208,"376":-0.0237608402967453,"377":-0.07431667298078537,"378":-0.04806208238005638,"379":-0.048060882836580276,"380":0.07251835614442825,"381":0.04624348133802414,"382":0.0782499685883522,"383":0.004815128166228533,"384":0.0024000040721148252,"385":0.014774597249925137,"386":0.02552621439099312,"387":0.03526000306010246,"388":-0.07035952806472778,"389":-0.05280520021915436,"390":0.0700206533074379,"391":-0.0047224429436028,"392":-0.054670099169015884,"393":0.07040634751319885,"394":0.03645410016179085,"395":-0.03897041082382202,"396":0.021717889234423637,"397":0.0012600787449628115,"398":-0.017142971977591515,"399":0.06881742924451828}},"inputBias":{"rows":20,"columns":1,"weights":{"0":0,"1":0,"2":0,"3":0,"4":0,"5":0,"6":0,"7":0,"8":0,"9":0,"10":0,"11":0,"12":0,"13":0,"14":0,"15":0,"16":0,"17":0,"18":0,"19":0}},"forgetMatrix":{"rows":20,"columns":5,"weights":{"0":-0.029921002686023712,"1":0.0013707788893952966,"2":0.027648672461509705,"3":0.07875992357730865,"4":-0.03818100690841675,"5":0.06621603667736053,"6":-0.04289780557155609,"7":-0.027841780334711075,"8":-0.07444971054792404,"9":0.014747565612196922,"10":0.04250277206301689,"11":-0.05342993885278702,"12":-0.028139306232333183,"13":0.023306328803300858,"14":-0.022701330482959747,"15":-0.03369385004043579,"16":0.025377502664923668,"17":0.06532751023769379,"18":-0.008716032840311527,"19":0.015486889518797398,"20":0.01135089248418808,"21":-0.031142333522439003,"22":0.006443431600928307,"23":0.01007458008825779,"24":0.05398968979716301,"25":-0.07945422828197479,"26":0.025509506464004517,"27":0.07743091881275177,"28":-0.021446695551276207,"29":-0.05343934893608093,"30":-0.03759206831455231,"31":-0.014613812789320946,"32":-0.057724159210920334,"33":-0.04613085836172104,"34":-0.0643167793750763,"35":-0.019929472357034683,"36":0.016029920428991318,"37":-0.06950634717941284,"38":0.021888814866542816,"39":0.06571660190820694,"40":-0.07456700503826141,"41":0.07203815877437592,"42":-0.0010343609610572457,"43":-0.05465951934456825,"44":-0.03237083554267883,"45":0.0129972780123353,"46":-0.05142035707831383,"47":-0.0297876987606287,"48":-0.0015768192242830992,"49":-0.0666746199131012,"50":-0.07711949199438095,"51":0.046846792101860046,"52":-0.042001280933618546,"53":-0.03815719112753868,"54":0.009206081740558147,"55":0.03311995044350624,"56":0.014781828969717026,"57":0.03276238590478897,"58":0.07207845896482468,"59":0.005114322993904352,"60":0.06640857458114624,"61":0.06829416006803513,"62":-0.0066276188008487225,"63":-0.0368235819041729,"64":-0.004312122240662575,"65":-0.01314085628837347,"66":0.03576945886015892,"67":0.0733194649219513,"68":-0.011928358115255833,"69":0.05445808172225952,"70":0.047677576541900635,"71":0.06283063441514969,"72":0.07660021632909775,"73":0.04892190918326378,"74":0.006541160866618156,"75":-0.04474318400025368,"76":-0.07977087050676346,"77":-0.0400836318731308,"78":0.05375208705663681,"79":-0.00436801603063941,"80":0.06171566992998123,"81":0.003108124015852809,"82":0.024841047823429108,"83":-0.028645211830735207,"84":0.04651001840829849,"85":0.07239962369203568,"86":0.040975164622068405,"87":-0.06022045761346817,"88":-0.04564167186617851,"89":-0.06218360364437103,"90":0.05260281637310982,"91":-0.06852331012487411,"92":-0.05690407380461693,"93":0.021523911505937576,"94":-0.004997828975319862,"95":0.05715271085500717,"96":-0.008725057356059551,"97":-0.013926444575190544,"98":-0.060071270912885666,"99":-0.03281555324792862}},"forgetHidden":{"rows":20,"columns":20,"weights":{"0":-0.057448070496320724,"1":-0.04533974081277847,"2":0.054380711168050766,"3":0.06967423856258392,"4":-0.005171490367501974,"5":-0.03306287154555321,"6":-0.02550312876701355,"7":0.019770527258515358,"8":-0.07275643199682236,"9":-0.04212259501218796,"10":-0.04635024815797806,"11":0.0443190336227417,"12":0.019161341711878777,"13":-0.037225645035505295,"14":-0.07875573635101318,"15":0.005934777203947306,"16":-0.02883954904973507,"17":0.010331526398658752,"18":0.04204026609659195,"19":-0.0439894013106823,"20":0.05685720220208168,"21":0.023653151467442513,"22":-0.0195755772292614,"23":0.043350428342819214,"24":-0.045895252376794815,"25":0.026527833193540573,"26":0.012584133073687553,"27":-0.06750480085611343,"28":-0.04971856251358986,"29":-0.02250801771879196,"30":-0.025036463513970375,"31":0.04975579306483269,"32":-0.04625159874558449,"33":-0.034181226044893265,"34":-0.0024896059185266495,"35":-0.07659764587879181,"36":-0.019577298313379288,"37":-0.011195947416126728,"38":0.0006864954484626651,"39":0.03782586753368378,"40":0.00954077672213316,"41":0.025029167532920837,"42":-0.02388801798224449,"43":0.0035921072121709585,"44":-0.04890361428260803,"45":-0.030869707465171814,"46":0.002677411772310734,"47":-0.05933477357029915,"48":0.04733677953481674,"49":0.06966069340705872,"50":0.038150422275066376,"51":0.0013499095803126693,"52":-0.07086712121963501,"53":0.06009804829955101,"54":0.011960696429014206,"55":-0.06897322833538055,"56":0.027582775801420212,"57":-0.00283901602961123,"58":-0.07123417407274246,"59":0.05037344619631767,"60":-0.02524636872112751,"61":-0.004233901854604483,"62":-0.03639735281467438,"63":0.022663425654172897,"64":0.06384491175413132,"65":-0.05762781947851181,"66":0.019292868673801422,"67":-0.017193466424942017,"68":-0.03697356954216957,"69":0.013978936709463596,"70":-0.03612378239631653,"71":-0.017013588920235634,"72":-0.06617838889360428,"73":-0.00569823058322072,"74":0.05677930265665054,"75":0.0433507114648819,"76":-0.02396121807396412,"77":0.07560820132493973,"78":0.07505606859922409,"79":-0.010616603307425976,"80":0.024028096348047256,"81":-0.022135036066174507,"82":-0.03972519934177399,"83":-0.07115956395864487,"84":-0.07513200491666794,"85":-0.05531809851527214,"86":0.002263006754219532,"87":-0.04571406915783882,"88":-0.03729312866926193,"89":-0.021202800795435905,"90":0.04028600454330444,"91":0.019831597805023193,"92":0.0031723955180495977,"93":-0.06575721502304077,"94":-0.05446121469140053,"95":-0.02706308104097843,"96":-0.008746102452278137,"97":0.06606064736843109,"98":-0.015123828314244747,"99":-0.07626902312040329,"100":-0.004849614575505257,"101":0.03872797638177872,"102":-0.024719534441828728,"103":0.060369398444890976,"104":0.07798749208450317,"105":-0.007041461765766144,"106":0.0516992025077343,"107":-0.052345018833875656,"108":0.006562363356351852,"109":-0.005541981663554907,"110":-0.06831704080104828,"111":-0.050803739577531815,"112":-0.01698227971792221,"113":0.00967592652887106,"114":0.020282844081521034,"115":0.05901474505662918,"116":-0.013459015637636185,"117":0.053786102682352066,"118":-0.022188598290085793,"119":-0.01819736137986183,"120":-0.051935870200395584,"121":-0.05213254317641258,"122":0.06317690759897232,"123":0.06613623350858688,"124":0.03678825870156288,"125":0.07524032145738602,"126":0.0337492972612381,"127":-0.07529108971357346,"128":0.06906379014253616,"129":0.03277565911412239,"130":-0.05509257689118385,"131":0.06448826193809509,"132":0.06434980779886246,"133":0.047560252249240875,"134":0.042042337357997894,"135":-0.027460966259241104,"136":0.05035628005862236,"137":-0.02639048546552658,"138":0.019208284094929695,"139":0.01606394350528717,"140":-0.07227884232997894,"141":0.04862625524401665,"142":0.034619975835084915,"143":0.047153834253549576,"144":0.053823646157979965,"145":0.045452553778886795,"146":-0.011711820028722286,"147":-0.03810711205005646,"148":0.06525685638189316,"149":0.00381411868147552,"150":-0.06014019995927811,"151":-0.050358064472675323,"152":-0.07925163954496384,"153":0.012747466564178467,"154":0.0759456530213356,"155":0.060635291039943695,"156":0.043162085115909576,"157":-0.06789468973875046,"158":-0.0015584338689222932,"159":-0.022392528131604195,"160":0.022318711504340172,"161":-0.03869562968611717,"162":0.04993720352649689,"163":0.017988769337534904,"164":-0.05679542198777199,"165":0.011703343130648136,"166":-0.035114821046590805,"167":0.03789859265089035,"168":-0.05265788733959198,"169":-0.026671193540096283,"170":0.02038835734128952,"171":0.03678501397371292,"172":0.048026952892541885,"173":0.07830903679132462,"174":0.03649410232901573,"175":0.018251854926347733,"176":-0.02102815918624401,"177":0.05187153071165085,"178":0.05028572306036949,"179":-0.04757552221417427,"180":0.0655493214726448,"181":0.002551162149757147,"182":0.03896819055080414,"183":0.03641412779688835,"184":0.07388831675052643,"185":-0.04895110800862312,"186":-0.003103614551946521,"187":-0.002613425487652421,"188":0.05182240903377533,"189":-0.04307513311505318,"190":0.009763406589627266,"191":0.062440622597932816,"192":-0.06501764059066772,"193":0.029889268800616264,"194":-0.02051910199224949,"195":0.07587487995624542,"196":-0.025860976427793503,"197":-0.06069016084074974,"198":-0.06246210262179375,"199":0.034311484545469284,"200":-0.006740664131939411,"201":0.05030009150505066,"202":0.03803569823503494,"203":-0.020890848711133003,"204":-0.06779270619153976,"205":-0.058725904673337936,"206":0.01675804890692234,"207":0.05700995773077011,"208":0.0485101155936718,"209":-0.06248155236244202,"210":-0.0527370348572731,"211":0.03929029032588005,"212":0.03171917051076889,"213":0.05739769712090492,"214":-0.05118529498577118,"215":0.04445410892367363,"216":0.07608592510223389,"217":0.05056331306695938,"218":-0.05054188892245293,"219":-0.0775122120976448,"220":0.020294731482863426,"221":-0.02985186129808426,"222":0.046480849385261536,"223":-0.05476329103112221,"224":-0.01911788620054722,"225":-0.027195969596505165,"226":0.03486260399222374,"227":-0.0651715025305748,"228":-0.005532675888389349,"229":-0.037491291761398315,"230":-0.07297959923744202,"231":-0.07062450051307678,"232":0.026187945157289505,"233":0.057787153869867325,"234":-0.018025383353233337,"235":0.07747740298509598,"236":-0.03311791643500328,"237":0.06856441497802734,"238":0.05308280140161514,"239":0.07254858314990997,"240":-0.036794498562812805,"241":-0.06363174319267273,"242":-0.07522948086261749,"243":-0.05549260228872299,"244":-0.037700850516557693,"245":-0.04317227751016617,"246":-0.021803034469485283,"247":0.06825318932533264,"248":0.06348010897636414,"249":0.0747697651386261,"250":0.03986222669482231,"251":0.017704255878925323,"252":0.056376323103904724,"253":-0.07455988973379135,"254":0.04318596422672272,"255":0.061740029603242874,"256":-0.023577501997351646,"257":-0.0107097327709198,"258":0.013853905722498894,"259":0.01366080529987812,"260":0.05918801948428154,"261":-0.07004757225513458,"262":0.050377119332551956,"263":0.061650220304727554,"264":0.006241885479539633,"265":0.028101179748773575,"266":0.05596385896205902,"267":0.007750899065285921,"268":-0.055016301572322845,"269":-0.007543821819126606,"270":0.031297408044338226,"271":-0.020168576389551163,"272":0.030641479417681694,"273":0.07288699597120285,"274":0.04571221396327019,"275":-0.07566964626312256,"276":-0.04207264259457588,"277":-0.055928729474544525,"278":-0.0025070952251553535,"279":-0.003198079066351056,"280":-0.05190923064947128,"281":-0.011039591394364834,"282":0.04248727113008499,"283":0.07953867316246033,"284":-0.046671364456415176,"285":0.01392449252307415,"286":0.023381464183330536,"287":0.067137211561203,"288":0.07990558445453644,"289":-0.03228212147951126,"290":0.07920845597982407,"291":0.018625445663928986,"292":-0.0674821063876152,"293":0.02631005458533764,"294":0.07234504073858261,"295":-0.011285200715065002,"296":0.07326945662498474,"297":0.07203864306211472,"298":0.07225383818149567,"299":0.04209309443831444,"300":-0.061502620577812195,"301":-0.02078709751367569,"302":-0.06392788887023926,"303":-0.05985119193792343,"304":-0.06265804171562195,"305":-0.07929953187704086,"306":-0.05631428584456444,"307":-0.04417155683040619,"308":0.007107100449502468,"309":0.04414454475045204,"310":0.0574893094599247,"311":-0.0724705383181572,"312":0.05393184348940849,"313":0.013856790028512478,"314":-0.02677578292787075,"315":0.018376020714640617,"316":-0.03874051570892334,"317":-0.06063856929540634,"318":0.051239728927612305,"319":0.07043765485286713,"320":0.02822611853480339,"321":-0.04838261008262634,"322":-0.05269462242722511,"323":-0.008704280480742455,"324":-0.039649397134780884,"325":-0.04288864880800247,"326":-0.06292645633220673,"327":-0.0773458257317543,"328":0.024687645956873894,"329":0.06514057517051697,"330":0.03383776172995567,"331":0.02677142806351185,"332":0.05594142898917198,"333":0.0657656118273735,"334":-0.042652759701013565,"335":-0.005471016746014357,"336":0.016544274985790253,"337":-0.028391709551215172,"338":0.053971532732248306,"339":0.011246897280216217,"340":0.0005008556181564927,"341":0.055938344448804855,"342":-0.07202408462762833,"343":0.054460424929857254,"344":-0.03197716176509857,"345":0.011086900718510151,"346":0.034762825816869736,"347":0.02616618573665619,"348":0.039498962461948395,"349":-0.07624030858278275,"350":0.0312705896794796,"351":-0.059021785855293274,"352":-0.02219897136092186,"353":0.017536530271172523,"354":-0.04798203334212303,"355":0.003926748875528574,"356":-0.003891279688104987,"357":0.03222620114684105,"358":0.0015192831633612514,"359":0.03166383504867554,"360":-0.04156774282455444,"361":0.07320233434438705,"362":-0.07070184499025345,"363":0.036683131009340286,"364":-0.027625612914562225,"365":0.05806538090109825,"366":0.06480655819177628,"367":-0.040836434811353683,"368":0.0014009997248649597,"369":-0.02999969571828842,"370":-0.009148936718702316,"371":-0.055966783314943314,"372":0.06744659692049026,"373":-0.06585314124822617,"374":-0.0730920135974884,"375":-0.031473830342292786,"376":-0.01799967512488365,"377":0.017787674441933632,"378":-0.0696311816573143,"379":-0.055286847054958344,"380":0.041431136429309845,"381":0.05978754535317421,"382":-0.006014761049300432,"383":0.049131400883197784,"384":-0.010660062544047832,"385":0.07354918867349625,"386":0.01128433272242546,"387":-0.0002581624430604279,"388":-0.07026633620262146,"389":-0.07221919298171997,"390":-0.03680911660194397,"391":0.034498430788517,"392":0.0578642301261425,"393":0.03718431666493416,"394":-0.013084787875413895,"395":-0.024891166016459465,"396":0.01383050624281168,"397":0.00013008584210183471,"398":-0.0535222589969635,"399":0.03815644606947899}},"forgetBias":{"rows":20,"columns":1,"weights":{"0":0,"1":0,"2":0,"3":0,"4":0,"5":0,"6":0,"7":0,"8":0,"9":0,"10":0,"11":0,"12":0,"13":0,"14":0,"15":0,"16":0,"17":0,"18":0,"19":0}},"outputMatrix":{"rows":20,"columns":5,"weights":{"0":0.041961584240198135,"1":0.05669235810637474,"2":-0.012742887251079082,"3":0.03064933605492115,"4":0.02130541391670704,"5":0.06053772196173668,"6":-0.025790665298700333,"7":-0.012473968788981438,"8":-0.06899601966142654,"9":0.02214798890054226,"10":-0.07019452750682831,"11":-0.038008030503988266,"12":0.0733465701341629,"13":-0.07919532060623169,"14":0.017818855121731758,"15":-0.031106825917959213,"16":-0.033946286886930466,"17":0.05916143208742142,"18":-0.0024374439381062984,"19":-0.03930869698524475,"20":-0.07491263747215271,"21":-0.06551114469766617,"22":0.056162912398576736,"23":-0.05997784808278084,"24":0.07864207029342651,"25":-0.004541898611932993,"26":-0.06714209169149399,"27":-0.046007316559553146,"28":-0.024237461388111115,"29":0.014038383960723877,"30":-0.059289541095495224,"31":0.07027268409729004,"32":-0.0031181233935058117,"33":0.05796841159462929,"34":-0.005798941943794489,"35":0.044923629611730576,"36":-0.010126599110662937,"37":0.037382323294878006,"38":0.0664415955543518,"39":-0.017226630821824074,"40":0.05896519497036934,"41":-0.060359638184309006,"42":-0.06266222894191742,"43":-0.019308296963572502,"44":0.03316374495625496,"45":0.059990283101797104,"46":-0.0264903474599123,"47":-0.052067674696445465,"48":-0.03046717680990696,"49":0.06327827274799347,"50":0.04244375601410866,"51":0.03915753215551376,"52":0.050142478197813034,"53":0.05625983327627182,"54":0.026697279885411263,"55":-0.07118552923202515,"56":0.04372985288500786,"57":0.001179580227471888,"58":0.005694197025150061,"59":-0.01268322765827179,"60":-0.03825093433260918,"61":0.04305069148540497,"62":0.04933712258934975,"63":0.01957038976252079,"64":0.04818721488118172,"65":0.03472620248794556,"66":0.06667788326740265,"67":-0.019412439316511154,"68":0.05807536095380783,"69":-0.03157106041908264,"70":0.055818457156419754,"71":0.016184363514184952,"72":-0.038210220634937286,"73":-0.06047610193490982,"74":0.028706585988402367,"75":-0.059217557311058044,"76":-0.01910371705889702,"77":-0.022696111351251602,"78":0.02281240187585354,"79":-0.006066163070499897,"80":0.004051808267831802,"81":-0.07301905006170273,"82":-0.02913232147693634,"83":-0.03818833455443382,"84":0.017048047855496407,"85":-0.04858194664120674,"86":0.008821017108857632,"87":-0.037492360919713974,"88":-0.012889067642390728,"89":-0.047169413417577744,"90":0.018305502831935883,"91":-0.07030428200960159,"92":-0.023350492119789124,"93":-0.06556278467178345,"94":-0.06858894973993301,"95":-0.030643343925476074,"96":-0.06802140921354294,"97":0.030291421338915825,"98":0.03441978618502617,"99":0.008958319202065468}},"outputHidden":{"rows":20,"columns":20,"weights":{"0":0.04150032624602318,"1":0.04066498205065727,"2":0.0419187918305397,"3":-0.026203397661447525,"4":-0.06443994492292404,"5":0.013228950090706348,"6":0.06898210942745209,"7":0.007528962101787329,"8":0.06749912351369858,"9":-0.05947072431445122,"10":0.0013677333481609821,"11":0.05927243456244469,"12":-0.05053187534213066,"13":-0.020920783281326294,"14":-0.07587473839521408,"15":0.0768432766199112,"16":-0.053934890776872635,"17":-0.06737353652715683,"18":-0.051107075065374374,"19":-0.028323885053396225,"20":0.02962111495435238,"21":-0.06620557606220245,"22":0.05499507486820221,"23":-0.006911713629961014,"24":-0.005839900579303503,"25":0.021513212472200394,"26":0.0008439612574875355,"27":0.061089154332876205,"28":-0.060424428433179855,"29":-0.045218028128147125,"30":0.06424219906330109,"31":0.006107455585151911,"32":0.05128227919340134,"33":-0.027829401195049286,"34":-0.07802567631006241,"35":-0.06057257577776909,"36":0.0612059161067009,"37":0.056945569813251495,"38":-0.057374484837055206,"39":0.06435807049274445,"40":0.014006083831191063,"41":-0.01466474961489439,"42":-0.07440155744552612,"43":-0.058029163628816605,"44":-0.010757247917354107,"45":-0.07803156226873398,"46":-0.06345148384571075,"47":-0.030203206464648247,"48":-0.03832405433058739,"49":0.019331904128193855,"50":0.01630350388586521,"51":0.04996638745069504,"52":0.07567854225635529,"53":0.052596621215343475,"54":-0.055810488760471344,"55":0.008988553658127785,"56":0.07591816782951355,"57":-0.036695752292871475,"58":-0.010263976640999317,"59":0.008159700781106949,"60":0.06655687093734741,"61":0.062131695449352264,"62":0.029588153585791588,"63":-0.0702049657702446,"64":-0.03363360837101936,"65":0.0006518615991808474,"66":0.009816760197281837,"67":-0.04311889782547951,"68":0.02024979703128338,"69":0.050754811614751816,"70":-0.07076915353536606,"71":0.020996438339352608,"72":-0.04798335209488869,"73":-0.03654687851667404,"74":-0.07088880240917206,"75":0.06694819033145905,"76":-0.05132407695055008,"77":-0.06934497505426407,"78":-0.005928758531808853,"79":-0.00382236042059958,"80":-0.03492618724703789,"81":0.04302888736128807,"82":-0.007897071540355682,"83":0.03843310475349426,"84":0.0605316236615181,"85":0.05904679372906685,"86":-0.066546730697155,"87":-0.053468409925699234,"88":-0.02169603668153286,"89":0.013775127939879894,"90":-0.06795741617679596,"91":0.011988034471869469,"92":-0.01290613692253828,"93":-0.04803425446152687,"94":0.008905146270990372,"95":-0.03504906967282295,"96":0.047885678708553314,"97":0.02495567873120308,"98":0.04124965891242027,"99":0.05185670405626297,"100":0.06310370564460754,"101":0.030585777014493942,"102":0.03983962908387184,"103":-0.04250066727399826,"104":-0.06697876751422882,"105":-0.05395151674747467,"106":0.008979509584605694,"107":-0.051413558423519135,"108":-0.014562638476490974,"109":-0.0771712139248848,"110":0.008802655152976513,"111":-0.06426873803138733,"112":0.040245264768600464,"113":-0.07073808461427689,"114":-0.05728231370449066,"115":-0.021690092980861664,"116":-0.02868734300136566,"117":-0.032022178173065186,"118":0.0480467863380909,"119":-0.03293552249670029,"120":-0.006587533745914698,"121":0.040423084050416946,"122":-0.024074964225292206,"123":-0.05722438544034958,"124":0.06736885011196136,"125":0.040618814527988434,"126":0.040646348148584366,"127":0.05788972228765488,"128":-0.02966262772679329,"129":0.05718109756708145,"130":-0.012734880670905113,"131":-0.051009345799684525,"132":0.0010951769072562456,"133":0.060593195259571075,"134":0.05138986557722092,"135":0.024632856249809265,"136":0.021700169891119003,"137":-0.06269636005163193,"138":-0.0792645663022995,"139":0.06758829951286316,"140":-0.03510520979762077,"141":-0.0377018079161644,"142":-0.01261548139154911,"143":0.03518259525299072,"144":-0.040513213723897934,"145":0.015986744314432144,"146":-0.02973831258714199,"147":0.026237821206450462,"148":0.042941540479660034,"149":0.06438013166189194,"150":0.039086081087589264,"151":-0.01319159846752882,"152":0.05305958539247513,"153":-0.014492111280560493,"154":-0.045356281101703644,"155":-0.05570896714925766,"156":0.06391213834285736,"157":0.03981735557317734,"158":0.0034676052164286375,"159":-0.07255160808563232,"160":0.006852723192423582,"161":-0.01136868167668581,"162":0.012135799042880535,"163":0.019606515765190125,"164":0.059641122817993164,"165":0.07257552444934845,"166":-0.01308462768793106,"167":0.010070541873574257,"168":0.03901505842804909,"169":0.0017282088520005345,"170":0.029882699251174927,"171":-0.05454905331134796,"172":0.025301501154899597,"173":0.034691959619522095,"174":0.01570277288556099,"175":0.041050080209970474,"176":-0.05600351840257645,"177":-0.0007931656436994672,"178":-0.02900409698486328,"179":-0.04454907402396202,"180":-0.05089582875370979,"181":-0.013837020844221115,"182":-0.06886173784732819,"183":0.06201634556055069,"184":0.05605509132146835,"185":-0.07620762288570404,"186":0.028517356142401695,"187":0.06393881887197495,"188":-0.033954959362745285,"189":-0.03448309004306793,"190":0.054232578724622726,"191":-0.039816103875637054,"192":-0.0678936019539833,"193":-0.03271050006151199,"194":0.04894611984491348,"195":-0.07945570349693298,"196":-0.04248775914311409,"197":-0.06493974477052689,"198":0.004374244716018438,"199":0.040446795523166656,"200":-0.027378695085644722,"201":0.06183497980237007,"202":0.0006314071360975504,"203":-0.03360358253121376,"204":-0.03218308091163635,"205":0.05050421506166458,"206":0.024499861523509026,"207":-0.029819326475262642,"208":-0.06132432073354721,"209":0.0698246881365776,"210":-0.05346051603555679,"211":-0.022230906412005424,"212":0.02997620590031147,"213":0.0744745135307312,"214":-0.03032047674059868,"215":-0.0017744377255439758,"216":-0.0510193333029747,"217":0.04701888933777809,"218":0.03596770763397217,"219":0.06373467296361923,"220":0.07941951602697372,"221":0.012844880111515522,"222":-0.007356937043368816,"223":-0.04466094449162483,"224":-0.07349839061498642,"225":0.04454857110977173,"226":0.04741000756621361,"227":0.07806554436683655,"228":-0.07944267988204956,"229":-0.0011230402160435915,"230":0.029675498604774475,"231":0.027844136580824852,"232":0.04495059326291084,"233":0.06066730245947838,"234":0.041183892637491226,"235":0.05802623927593231,"236":0.03974437713623047,"237":0.016221459954977036,"238":0.02911207638680935,"239":0.01927252486348152,"240":0.05886934697628021,"241":-0.03728127479553223,"242":0.07802844047546387,"243":0.00901417899876833,"244":0.023486578837037086,"245":-0.06266189366579056,"246":0.023655902594327927,"247":0.05609361082315445,"248":0.05524249002337456,"249":-0.05313441529870033,"250":-0.02908557839691639,"251":0.038473986089229584,"252":-0.038218896836042404,"253":0.07745306938886642,"254":0.054055772721767426,"255":0.02414291724562645,"256":-0.05771395191550255,"257":-0.01861746609210968,"258":0.07041443139314651,"259":0.05844930186867714,"260":0.0668744146823883,"261":0.021306701004505157,"262":0.018641121685504913,"263":0.05726585537195206,"264":0.03790204972028732,"265":0.07732382416725159,"266":-0.041540876030921936,"267":-0.0046198731288313866,"268":0.006583562586456537,"269":-0.01034253928810358,"270":-0.06176410987973213,"271":-0.010907345451414585,"272":-0.02910695970058441,"273":-0.040447983890771866,"274":0.07712066918611526,"275":0.04678744822740555,"276":-0.010851399973034859,"277":-0.05752292275428772,"278":-0.008783305995166302,"279":0.032955996692180634,"280":-0.07644820213317871,"281":-0.04008892551064491,"282":0.05495242401957512,"283":-0.06940367072820663,"284":-0.017281413078308105,"285":-0.05948789790272713,"286":0.06632009893655777,"287":-0.0747523382306099,"288":-0.05351172387599945,"289":-0.07821053266525269,"290":-0.03395483270287514,"291":0.04257623106241226,"292":-0.06771501898765564,"293":0.03292223811149597,"294":0.07566609233617783,"295":-0.040254559367895126,"296":-0.050133537501096725,"297":0.02768826298415661,"298":0.05478990450501442,"299":-0.01808924786746502,"300":0.06498013436794281,"301":0.06988988816738129,"302":-0.051210056990385056,"303":0.018763234838843346,"304":0.05248618870973587,"305":-0.04654393345117569,"306":-0.05735974386334419,"307":0.0680711641907692,"308":0.05317028984427452,"309":0.06332608312368393,"310":0.017987819388508797,"311":-0.06450332701206207,"312":-0.028715072199702263,"313":-0.025840209797024727,"314":0.004001325462013483,"315":-0.029019130393862724,"316":-0.02998356893658638,"317":-0.03476925939321518,"318":0.07744491100311279,"319":0.06142466142773628,"320":-0.06818156689405441,"321":-0.03478282317519188,"322":-0.03625337406992912,"323":0.07626060396432877,"324":0.045536287128925323,"325":-0.05933716520667076,"326":-0.018908802419900894,"327":-0.07587325572967529,"328":0.029935091733932495,"329":0.07214215397834778,"330":-0.025644496083259583,"331":-0.010723041370511055,"332":0.032559365034103394,"333":0.05584420636296272,"334":0.059120554476976395,"335":0.027355803176760674,"336":-0.031207187101244926,"337":-0.035591866821050644,"338":0.054383665323257446,"339":-0.07829662412405014,"340":-0.02495354600250721,"341":0.03272785246372223,"342":0.014049668796360493,"343":0.06416212767362595,"344":0.048546548932790756,"345":-0.0018952562240883708,"346":-0.044754937291145325,"347":0.07844112068414688,"348":-0.015247967094182968,"349":0.023825418204069138,"350":-0.06512165814638138,"351":-0.014842129312455654,"352":0.023705918341875076,"353":0.030273258686065674,"354":-0.03262101113796234,"355":-0.06318020820617676,"356":-0.009622683748602867,"357":0.02669980190694332,"358":0.038200680166482925,"359":-0.046142276376485825,"360":-0.06738445162773132,"361":-0.048676420003175735,"362":0.004094327334314585,"363":-0.06306640803813934,"364":0.07917896658182144,"365":0.0017907170113176107,"366":-0.04068700969219208,"367":-0.028617586940526962,"368":-0.06006471812725067,"369":0.017667202278971672,"370":0.06000825762748718,"371":0.01589149981737137,"372":0.04150763899087906,"373":0.036262147128582,"374":0.05223803222179413,"375":-0.016148561611771584,"376":0.03598187491297722,"377":0.07367288321256638,"378":0.008164997212588787,"379":0.06649825721979141,"380":-0.019373545423150063,"381":0.061830680817365646,"382":-0.0144151346758008,"383":-0.03249790146946907,"384":0.03360758721828461,"385":-0.008845765143632889,"386":-0.07948283851146698,"387":0.026711447164416313,"388":-0.005180899519473314,"389":0.030993614345788956,"390":0.03227821737527847,"391":0.0007674170774407685,"392":-0.024686887860298157,"393":0.03274106606841087,"394":0.06256870925426483,"395":-0.02909870818257332,"396":-0.04092435538768768,"397":-0.062146347016096115,"398":-0.03317053243517876,"399":-0.05560290068387985}},"outputBias":{"rows":20,"columns":1,"weights":{"0":0,"1":0,"2":0,"3":0,"4":0,"5":0,"6":0,"7":0,"8":0,"9":0,"10":0,"11":0,"12":0,"13":0,"14":0,"15":0,"16":0,"17":0,"18":0,"19":0}},"cellActivationMatrix":{"rows":20,"columns":5,"weights":{"0":0.06317463517189026,"1":-0.008384278044104576,"2":-0.07885932922363281,"3":-0.025167159736156464,"4":0.05313417315483093,"5":-0.04119940847158432,"6":-0.010138193145394325,"7":0.05471528321504593,"8":-0.0325685478746891,"9":0.06371402740478516,"10":0.026531947776675224,"11":0.04186209291219711,"12":0.043320901691913605,"13":0.06799998134374619,"14":0.0732385516166687,"15":-0.026391325518488884,"16":-0.052710890769958496,"17":0.004437637515366077,"18":0.07856690883636475,"19":-0.030622251331806183,"20":-0.003749626688659191,"21":-0.06261059641838074,"22":0.052196204662323,"23":0.02562582865357399,"24":0.03247321397066116,"25":-0.050909217447042465,"26":0.0590587742626667,"27":-0.07124563306570053,"28":0.05983932688832283,"29":0.07763185352087021,"30":0.012786400504410267,"31":-0.058307889848947525,"32":-0.04356157034635544,"33":0.07602179795503616,"34":-0.013843228109180927,"35":0.033950697630643845,"36":0.04160405695438385,"37":0.031315114349126816,"38":0.030134273692965508,"39":-0.06850048899650574,"40":-0.010185780934989452,"41":0.013667437247931957,"42":-0.04554470255970955,"43":-0.012911917641758919,"44":0.05794545263051987,"45":0.025124095380306244,"46":0.036346785724163055,"47":0.010164772160351276,"48":-0.07514658570289612,"49":-0.04965897649526596,"50":0.019792843610048294,"51":0.01417740248143673,"52":0.013421454466879368,"53":-0.06059028580784798,"54":0.07440699636936188,"55":0.022091438993811607,"56":-0.04586905613541603,"57":-0.07758297771215439,"58":-0.04021405801177025,"59":-0.004598053637892008,"60":0.032532449811697006,"61":-0.061504822224378586,"62":0.02203110232949257,"63":0.01305571012198925,"64":0.026857422664761543,"65":-0.02274601347744465,"66":-0.06170189380645752,"67":0.031067198142409325,"68":-0.05440684035420418,"69":-0.03418818861246109,"70":0.044899724423885345,"71":0.015476576052606106,"72":-0.00878023263067007,"73":0.05605148896574974,"74":0.05305410176515579,"75":0.01867763325572014,"76":-0.014625098556280136,"77":0.05183401703834534,"78":-0.01866948790848255,"79":-0.008973989635705948,"80":-0.06196517497301102,"81":-0.04274079576134682,"82":0.04966042563319206,"83":0.07814080268144608,"84":0.06602693349123001,"85":0.0762747973203659,"86":-0.048104435205459595,"87":-0.04118715599179268,"88":-0.06553258001804352,